{"hidden_layer1": {"weights": [[0.223111342509055, 0.008769232918079267, 0.034836440384836326, -0.0562101348358575, -0.11750568471669719, -0.012771194835716456, 0.06792168757245837, 0.08746384152924365, -0.20128061328502442, -0.061318472009827, 0.009622071608868374, 0.07276362197521764, -0.08886526527636238, 0.02346988465038819, 0.18637018630611693, 0.21131624186842685, -0.14144855596257558, 0.05249538612922379, 0.013074841519374875, 0.08458634573076355, -0.17593705977454555, -0.08991264914350552, -0.03259549890871619, -0.09764155188352944, 0.19406709989430174, -0.2686633250316777, -0.06280096167206622, 0.007677346161800753, -0.06654133508419711, 0.0914753210578222, -0.002776929333305871, -0.09703957869043393, -0.10420926746332057, 0.17016287121848692, 0.08532920099002732, -0.21798756015485893, 0.11558182986476685, -0.023839364359834213, 0.1478535369053725, -0.0806706672024202, -0.08745861580995823, 0.02730396281687562, -0.09582956786688454, 0.1342498693955082, 0.016957336072264413, -0.22941804636288118, 0.034077900925118164, -0.07900527013091094, 0.05496863412145352, -0.04686994315656276], [0.3753313046929908, 0.0409689096799428, -0.12947471259954396, 0.06890766265239133, -0.06293595887637195, -0.09714994001699688, -0.1092337216220258, -0.35995095408721095, -0.09597678703340665, -0.015303247730062865, 0.0617261597301291, 0.1416315061247332, 0.07037771180139385, -0.0009461802072690065, 0.08557702654237428, 0.12429189340987437, -0.18811774724958433, 0.08650532569972948, 0.0022074394390358236, 0.1886002946498176, 0.2732254814011529, -0.10876999619263025, -0.12461974141709671, 0.042437219361780354, 0.19625378689387138, 0.08777158458054632, -0.109073712780611, -0.052285753902806695, 0.1912575203784166, 0.17536972557973796, -0.1534398122470012, -0.10130905030898656, 0.04398502864403771, -0.02399376308677446, -0.060685954577090584, 0.24628086951510522, -0.11531285611048896, 0.24054904783897035, 0.32101136307295003, -0.07360388145919586, 0.22519117571318323, 0.1310822193570962, 0.2161988832451783, 0.25127530437823786, 0.007036541337017281, 0.041046386583659895, 0.023332429147999514, -0.28818586319023165, -0.1130441207432426, 0.09830841868284128], [0.07291739428924286, -0.02657424137147771, 0.06606264725141939, 0.18095632565343886, -0.05780812555351952, -0.05188175434561071, -0.028314829562085433, 0.15776655863153943, 0.12872733014651583, -0.3285734737648305, 0.07310609879370211, 0.17048932987195628, -0.13918018151044106, -0.10540734532006206, 0.21294625599958614, 0.07121125639359843, 0.10830347164562631, 0.30964170308890626, 0.3249303299218852, 0.11372403755161567, 0.04188554862098039, -0.15195501821879914, -0.44965892403809354, 0.017867807108363245, -0.058975908676030066, 0.4845227159682546, 0.05461168222035438, 0.0072544596598733396, 0.02879773178631913, 0.3069138737921734, -0.08186425411102954, 0.12990943295214702, -0.057528990746253866, 0.02843882825767907, 0.0066055158833094796, 0.23761592203851473, -0.2500537146472169, -0.04421725902557962, -0.1612921866819901, 0.03467660868790895, -0.03963164927859741, 0.03347491448091432, 0.10523077088277359, 0.31149386002826457, -0.39265260254498363, 0.21093543436800785, 0.27433568852534446, -0.3785876200148108, -0.015953841078280313, 0.18082848332035406], [0.05423547008390186, 0.3426927385796569, -0.19717804462014898, 0.2544198844934013, 0.20598394709975013, -0.023649203464312332, -0.07968946701462963, -0.01267995287020129, 0.5504549969996236, -0.12050234148468486, -0.1356558298958095, 0.4118254812189402, -0.003707652208437841, -0.29824461910549227, 0.2218796676022741, 0.1206763043959848, -0.33990924166298, 0.10982915688365741, 0.17489327513130679, 0.010456602105970764, -0.10696234960143036, -0.34084862723444337, -0.16813459099418332, 0.14968895081782316, -0.2032945941584866, 0.41126263118682926, 0.0721494140056646, 0.22453608107163472, -0.3499341459544406, 0.22590399862331048, -0.1808177360292674, -0.03735225559311941, 0.15883903704972663, -0.29132609992429914, -0.17984265263389693, 0.14128667007358187, 0.06882312211407178, 0.00806812552683015, -0.24143705514347372, -0.23789990076149709, -0.25576841834133074, 0.029523245693057275, 0.024758935364895495, 0.18287195061265796, -0.20670463469222136, 0.16846233537205563, 0.2673089276144322, -0.37170093852738983, 0.3616156699874206, 0.4197840415057958], [0.10643030732528484, 0.14057184439573686, 0.15602723862886034, -0.05705978020033166, 0.2783611135860742, -0.15642365594869626, 0.3265438061947849, 0.3100419343099456, 0.40430102957888653, 0.16640156525513505, 0.12915902504591092, -0.10624336867346285, -0.22602092376082752, -0.114814667542294, -0.13933637121674325, 0.052353395919716106, -0.11737418308015432, -0.24046170598573827, -0.022994282178739132, -0.13131882780977833, -0.38357782640772464, 0.1947914239894835, -0.06414357764761927, 0.4359895403279822, 0.3134848480932935, 0.29702766136759395, 0.1040782160016478, 0.27545776945838485, 0.18015042223402553, 0.1480373888703365, -0.0743995284685737, 0.19098230000669733, 0.2804254055841555, -0.2775927604639079, 0.2417035778636613, 0.2358386568792768, -0.2686061296586273, -0.05572502655172232, -0.24486441822534963, 0.5280884966532421, -0.1650798205577773, 0.059329953258254485, -0.11759039211084066, -0.057496125564891004, -0.21681793325450313, 0.190256745439469, -0.09716940095883657, 0.14962798747674472, 0.07691455649719438, 0.39682986403787435], [-0.16200325262424248, -0.3735156609143375, 0.24235223581187865, -0.39153411626695755, 0.3882370829701948, -0.06789625234448765, 0.42964769618187265, 0.09495370481426839, 0.10219608266966564, 0.5664667089555816, -0.16066376662542423, -0.3220330918646538, -0.6299595180724764, 0.27254672704452937, -0.16207503170978974, 0.010624107952010646, 0.7446342509262541, -0.40063753158992327, 0.3074271661262969, -0.3559773153817761, 0.020635897223521302, 0.3911890707805487, 0.06528929172186702, 0.0745971038255385, -0.2925216912234666, 0.13139970753938118, 0.5264228387669561, 0.15933915370232962, -0.28175931752078925, -0.2503447720761866, 0.09807826010826903, -0.21230254586270203, 0.4438517370617702, -0.30808301904533153, -0.14422560357564457, 0.016242380823308304, -0.4149325269268121, -0.15888060314639357, -0.27737095025493286, -0.034087926774577934, -0.23372958548391365, 0.036781345388582014, -0.48516030007426697, -0.48246539103538855, -0.18617454168562325, 0.08852492863646225, -0.1469765269965376, 0.5410048211765303, -0.18001775625845606, -0.2732866213088241], [-0.09957815274752202, -0.28166930174162075, -0.1811859788839793, -0.3554771118421455, 0.3407615417212109, -0.059047606260024185, -0.0068904559596920725, -0.21959254232629474, 0.13240963571993183, -0.033034521561897796, 0.1251514216539107, -0.06487890498788627, -0.04668462199217535, 0.2608779043910541, -0.27407007986951587, -0.24951560910480405, 0.001384777887637891, -0.7912344237827611, 0.0016467528173088487, -0.43258779296515726, -0.047761267684558836, 0.12922831508301433, 0.2075938687955817, 0.010648678066217705, 0.09258674549004055, -0.17081761589057495, 0.4026816489697809, 0.1837481075219244, -0.14328409434178305, 0.1334677311264977, -0.11827469646169272, 0.012838068482556073, 0.3604532286782843, -0.14070364020309162, -0.04982410333170281, -0.256497336492079, -0.12561242628113828, -0.35919004757251494, -0.142282371076828, -0.10879923518985987, 0.09806120723338055, -0.10768942066094161, -0.4049519557309421, -0.2641641306880103, -0.06329839064711673, -0.022480724614964327, 0.0658100177237293, 0.5638912562282861, -0.33717797556631585, -0.130904241246451], [0.02707934908989577, 0.048789490079659235, -0.1300012143448482, -0.08358019736004882, 0.08586530586276524, 0.029526329984130205, -0.059190095800964605, -0.026816491082354524, -0.02479973821691143, -0.04204901045380054, 0.13136801558904723, -0.07069822599545311, 0.5242620490842598, 0.26521209555602776, 0.012815726882049738, 0.24725559354315818, -0.04529742293101341, -0.5798689772470507, 0.15521983077897228, -0.3524331181709773, 0.12436225574749359, -0.08958476705765203, -0.525304751829322, 0.5130665105476528, -0.11803496174225266, -0.013986670324378187, 0.46732153382079106, 0.3485305895204599, -0.3178101542084757, 0.6883785459445502, -0.28932428887791256, -0.23537971681343814, 0.21135727556662437, -0.05962385046870149, 0.025164719644674514, 0.25296399307822637, 0.030552961777424333, -0.07416522161269301, -0.42017016791460104, 0.11725119223288447, 0.25439310105854984, -0.12519333133676352, -0.31547307021841486, 0.1853684256619563, -0.00781884897750022, -0.16146554239154198, -0.15085721205294927, 0.0309403836353571, 0.14864278127822675, -0.06408283300648875], [-0.015305821783960137, -0.49160632529491644, 0.40100193630413017, 0.17172251778697034, -0.01767132159451693, -0.27470486379673065, -0.16773720653628624, -0.3715101601988974, -0.22994908272608428, -0.029482202758643754, 0.22180421993815064, -0.19345888549109666, 0.09241019390566282, -0.023755275917868125, -0.3053908042841599, -0.009118937632260148, 0.10931832803410454, -0.25886026713432364, 0.18043576044516257, 0.09066744276942718, 0.16129694222178476, 0.05119596160255694, -0.5027547969701484, 0.26375369504220497, -0.13271283411599955, 0.37419416059654326, 0.24400728299509591, -0.1840259938466993, -0.33926145178198414, 0.41447461265754887, -0.003067122051374425, -0.40296329135497766, 0.28011013553288333, 0.3351884864594794, -0.20149455327338364, 0.25957335543357785, -0.04235427258743486, -0.05557124071912614, -0.23109697542264898, 0.24426741592937956, 0.03128178631864525, 0.07950217843350436, -0.1792740289911306, 0.0825743303398666, -0.07581810311277316, -0.3856131694888865, 0.044408353297017034, -0.08576603353575378, 0.09823805138489942, 0.11567558699909906], [0.04871972002147765, 0.16496549649147826, 0.1739796699120474, 0.21505336576555834, -0.05076267795610455, -0.20108144230995462, -0.5746610859000295, -0.14714737064962885, 0.08069970463519478, -0.2156331920944384, 0.14153040561939234, 0.004563835191058458, 0.04647073229055773, -0.1910203712604192, -0.21922234144223446, -0.04093376190850493, -0.12637772997053448, 0.31893949414257544, 0.026883214746114364, -0.18989367579816202, -0.08392919563710052, -0.056563916278300666, -0.3038636978661311, -0.0307655928401516, -0.02641969708340035, -0.26143553139353976, -0.08099180596118614, 0.021972162070364135, -0.45430585981880606, -0.01509759437884912, -0.13413702889075432, -0.23733754725055614, -0.18498111570609752, 0.049282249425777656, -0.019756975802676772, -0.28512232392781794, -0.07587419074301897, 0.017174507486851225, -0.09970716937148542, 0.1313812258521843, 0.031006279276384732, -0.24880978011805174, 0.3310339000430527, -0.09794984789225838, 0.21581697103558953, -0.1033363467774301, 0.13612092184534338, -0.4523839606936918, -0.09412115949906526, 0.2660251232913176], [-0.04290768166140144, 0.26851317331726504, 0.2283078684601545, -0.07829166219944968, 0.08549963421056676, 0.025377711759608464, 0.0025368020143892245, -0.06195266314479994, -0.20368389244412202, -0.22203300203164997, -0.010008424052993134, 0.3265248269231927, 0.20259417456039447, -0.020749030327276333, 0.14356543716985537, 0.2797358107691039, -0.05045331405515155, 0.07104497989973477, 0.15438422587739759, 0.14479040851016708, 0.13136034491619106, -0.010062487328523325, -0.031823202014967106, 0.09968836807988969, 0.08834773226561539, -0.09775620300809618, -0.37312396144334886, 0.007631154504456276, -0.21814282024708417, 0.04425597725378014, 0.12589679362931544, -0.04695800193680587, -0.1342724823186876, 0.18919693529265746, 0.10844032902892992, 0.21193959626459957, -0.004160069026980879, -0.12000749490466787, 0.07333643718915228, 0.0482052648518735, 0.19125399259809117, -0.041892367903093856, 0.30020743619165163, 0.0022294762219300674, -0.3036043385027938, -0.07181566944601656, -0.10876112390215523, -0.3550181664659666, 0.14278206128084972, -0.14423700069698717], [0.0870602863418323, -0.08954844979340593, 0.1933196571823541, -0.2502934030831528, -0.13517166266278374, -0.26540564360839985, 0.14852450594122774, 0.2586382450908475, -0.11254224782933268, -0.005952469416045389, -0.187166485777811, -0.015898324169892838, -0.03860498306343359, -0.011033467232591954, -0.05940468238641977, 0.15324646299361075, 0.05064659449622858, -0.011861919177987136, 0.09094443995618051, -0.08643438628090155, -0.004876910546814886, -0.11262459987782403, -0.09690835357018672, -0.21123857305518898, -0.052752070882716925, 0.030336617634008252, -0.2329666239750323, -0.037563612756548216, -0.015789990019466748, -0.0450040711320444, 0.12905295461518043, -0.041549780095028105, -0.14400074930880213, -0.06003447141972511, -0.015236605744544171, 0.15474913144363422, 0.005797029705825915, -0.054549651465362295, 0.001588725075805208, -0.11721942321208192, -0.05913269040640788, -0.009088980345073413, 0.2103371123161621, -0.06148101137455469, 0.1337302161967172, -0.09628651440072417, 0.04138576135835631, -0.03842289783150122, 0.022829150873943067, -0.2858863036547716], [0.3561699503971447, 0.4286625366235309, -0.031392592414403286, -0.30094405838639254, 0.06901151225444127, 0.10586834935398114, 0.012760537659962825, -0.06913169623282947, -0.4025418948214637, -0.09553538794917993, -0.23847919483103186, 0.10362226771552915, -0.25150448678725584, -0.05786018492842553, -0.4616766225523084, -0.09125943890852006, 0.08649902819827006, -0.17050568553486364, -0.08896220435713323, 0.09284777425384169, 0.20866950135280496, 0.19041285907792763, -0.03550008521734743, -0.06488776357478711, -0.0378377285145462, -0.14117672600269862, -0.15708325860834435, -0.11725444351374817, 0.010790194957661894, 0.0047334964446323225, 0.07443397564073817, -0.03815893440199329, -0.09705734639103061, -0.09467191124242737, -0.027658653516133058, -0.0486171715870672, 0.0209038447341308, -0.21352221247092834, 0.04578070490162635, -0.05526739434956636, -0.23981415560439015, 0.1800906495444338, -0.1778945334387094, -0.02355855313554885, 0.10067684554720219, 0.06312120789863562, -0.17455401949230032, -0.021502105957581157, 0.11144469912889918, -0.29526254239145794], [0.2599231751760696, 0.24771656936152409, 0.013014391440862574, 0.10203488078648283, -0.23973317879797484, -0.10057778042151617, -0.012049197702605924, -0.022656304660521424, -0.05295413247757131, -0.02398197304236814, 0.03285017795668839, -0.02678023600078738, 0.1378081621725128, -0.12099845688463676, -0.03632179614726412, 0.011483022290927274, 0.08639945600295773, 0.08805193455018985, -0.029239790868212576, 0.07441235029244375, -0.0342643028959345, 0.056705655786092664, 0.18727956722489061, -0.1520951175655513, 0.18121095898220319, 0.36754407486460233, 0.1635577153417194, 0.08806038325097106, 0.019483753484209002, -0.1537410841642785, 0.09082435741565821, 0.18161958105485848, -0.12975337034191683, -0.07745966712622888, 0.1233607229963633, 0.1798436203598711, -0.16877240799525947, -0.16159319114215107, 0.17395493572923634, 0.07259954202240738, 0.008425397395133542, 0.20215711939313954, 0.0636286874710012, 0.23614767626165475, -0.07185440987948946, 0.026121535051652222, -0.11658673643153906, -0.32282422476035033, -0.014595691272831219, 0.05069090799757508], [0.5205523683944, 0.16116418654409306, -0.26401255193219797, 0.29865016034480146, 0.007312076552245925, -0.1812879113150697, -0.10553115434069121, 0.12687893638687398, 0.06521096727891308, -0.2830285701157375, -0.05811343356428292, 0.28974172356164185, 0.37831596094504005, -0.16901260697764287, 0.4063202844431661, 0.0008370788397025722, -0.15552573419061952, 0.16104216388750775, 0.20838469681341715, -0.3053381993563865, -0.3827810778301881, -0.18661377887609842, 0.15033638610902433, 0.09836350792498602, 0.2270359361045438, 0.5155928317164022, 0.06969610089976518, -0.2662843314211958, -0.16267939802072912, 0.533866245087327, -0.3053834685656049, 0.04965066482001695, 0.19955047656905725, 0.13282037526943244, 0.14720970240625583, 0.25297373183425426, -0.09241888955725547, -0.4637052416234119, -0.557591989033116, -0.05629649654750795, -0.23036381055614466, 0.019831576743577738, 0.03471183418001758, 0.6254631571709951, -0.7594487821187417, -0.07592436233990614, 0.27960368119343976, -0.35698614704604736, -0.054579740069250454, 0.519949455350692], [0.18947036637870077, 0.4331606254921005, -0.0909649704908752, 0.20870280616557887, -0.06232095878734185, 0.2627377920182228, -0.0832134712064658, 0.0740798910087329, 0.01923497621334188, -0.36960726889565276, -0.39628031973275296, 0.26170244772931767, 0.15775685761769176, 0.1453267759923295, 0.41339903763925034, 0.2647953763318559, -0.27628664989607354, -0.02685415260806144, 0.04020819318179371, -0.2587114691494496, -0.24126022155750293, -0.1700265156757055, -0.23841482387414142, 0.1784106005490117, -0.1911210904270463, 0.4103445434927129, 0.3459288132809204, -0.09935942955955059, 0.023530413636518997, 0.3554212880506433, 0.048240556279691156, -0.14948296406611405, -0.13335321215323265, -0.2396212329551871, -0.05342944870661713, 0.09413583798884219, -0.2882419721238707, -0.03566682528940918, -0.3570562462286556, -0.17441481000812775, -0.3519626325563143, 0.11940689199154397, 0.015139241316864964, 0.12423920214203193, -0.300492283842682, 0.031558022581598504, 0.2909296248864187, -0.3913450059458618, -0.07365467508661339, 0.03922220559853761], [0.16995377495869543, 0.2959310610230636, -0.010899347765827473, -0.21302805559443297, -0.051768126363857365, 0.13446866412290862, 0.24872286688481485, -0.16187226222745701, -0.0026030956752329595, 0.07938482122688736, -0.18931868657374973, 0.41452422223561236, 0.10642416536376113, 0.07391020172744574, 0.10347516194656302, 0.2617043483762422, -0.2045201440975525, -0.1323955779317274, -0.2849657527600572, 0.09878164065970227, -0.3147587788769209, 0.22745815166801603, -0.05614474125101144, 0.4355342227914103, 0.26432532086052274, 0.019997072576498746, 0.15095845744127376, -0.24652208965558037, 0.1442929582918914, 0.0835663881874885, -0.017914457330639188, -0.12929722160127052, 0.12668207677115317, -0.08286694293127839, -0.09749681309922972, 0.4752783555893438, -0.269112544025532, 0.08629792011663463, -0.18595096982099826, 0.21721903602304024, -0.26802569862514475, 0.05337580032583186, -0.25656117275881035, 0.2517840678756404, -0.14454089979469387, 0.03306866081798297, -0.15180046234911487, 0.11004778528309321, -0.15020505867337888, 0.2784723399562058], [-0.21914769378328508, -0.35273599036746306, 0.009185131562751197, -0.5132193846856874, -0.02568747120674084, -0.29356871551031505, 0.728927196731795, 0.06729686103556286, 0.013250970895641355, 0.40804059680749655, 0.11696040157630588, -0.01144467048195534, -0.41586070131423064, -0.014153457543808062, 0.2278453197668778, -0.25626790792981996, 0.8146550929487367, -0.3949835153861601, 0.1840732061909739, 0.09668937654575212, -0.309120777516088, 0.2132258317068536, 0.4683043348113245, 0.3519716274986098, -0.20410303246961392, 0.20858006017220063, 0.2584655061951548, 0.12432378862154865, -0.21630433888792938, -0.14423576805427127, 0.06451565971765363, -0.7447151658507408, 0.15009076737465485, -0.30416972992043667, -0.035849512628052714, 0.4094198142691078, -0.3992676364590295, 0.04214095410714128, 0.17044380535187134, 0.14279351734733753, -0.6715923571687672, 0.13759733740094907, -0.6862384138719437, -0.3770314992887636, -0.21791346952657392, -0.2046400420297381, 0.16951071376500748, 0.4818054050579474, -0.13666229684583134, -0.23728396921754963], [-0.22655489393072986, -0.13427422595849656, 0.10826047529528099, -0.5788497857515287, 0.31185188476451087, -0.24752692647033542, 0.1722078178869764, 0.18757426847956157, 0.31277718109565206, 0.10643392210144371, 0.24557117740076326, -0.2910164255798676, -0.37181625000200835, -0.3436700122871379, 0.07867214220206213, -0.3046923303428546, 0.41716897169495093, -0.564299091081826, 0.1860932172151278, -0.08553529162482207, -0.49585190167087595, -0.2213122141543145, 0.35689479784788525, 0.010237492297853798, -0.16652586607808514, 0.35241812141894613, -0.1113405892058794, 0.24392318332637689, 0.009928061393751172, 0.08620498300592196, -0.1855054596668828, -0.0698360604980625, 0.027624073333911526, -0.131751064166591, -0.08073342644143336, 0.20860847419928474, -0.052474592215035296, -0.1923834533462082, 0.2936377201713553, 0.4004879326431026, -0.0741339263060205, -0.14446972152829463, -0.5200586027582921, -0.7026812356944122, -0.44563041048395463, -0.029246513849457097, -0.15150318991783354, 0.2998444977508854, -0.1463404830475177, -0.15966165839242694], [-0.35827338407607984, -0.3668086874453855, 0.08026025508852663, -0.09743602545105079, 0.3431983247664629, -0.06438358627296949, 0.13242374068038612, -0.6162507075072108, 0.07534027113899103, 0.010632930238452853, 0.4704135601977788, -0.47236344026783056, -0.3062862036589531, 0.3180224580665502, -0.18458457213493054, -0.3091912176641087, -0.06218216427706106, -0.19064897378419748, -0.3612841454723486, -0.04485274951534102, -0.1361234073219907, 0.013399077115347659, -0.44388021306466713, 0.47787254881335717, -0.1729184089473136, 0.4096938868690928, -0.006236636489714847, -0.45912068703960324, -0.16491015755257418, 0.5158296486603353, 0.0019799190468033634, -0.3218968710247848, 0.2296850893150548, 0.1939309626018005, 0.32613240934181986, -0.01667267525664276, -0.12088562088976879, 0.04318784063475749, -0.11908185209634378, 0.3580712628904003, 0.337655504829976, -0.06568626524056488, -0.32965694222009395, -0.17949451541398712, 0.17321141865778067, -0.09360354052092884, -0.11903692184937263, 0.26996193990191675, 0.006934061858748648, 0.39594253955034886], [0.09237944477364904, -0.2698543025513653, -0.1297912034431859, 0.18373510319657738, 0.1133006724815982, -0.23029742575502113, -0.12908626727366593, -0.30300607077181724, -0.1684097068977309, -0.3600129823277104, -0.09418340054621749, -0.1332653860455952, 0.025141108629900957, 0.2500871456901862, -0.07521713634251383, -0.044652335163232, -0.11501391361103237, 0.3109980120076598, 0.025966267613470147, 0.2046410266822517, -0.1286903735866052, 0.09982176291092199, -0.9732025706058243, 0.13130247812871335, 0.18953057111621777, -0.06807446121485931, 0.23096007243579972, -0.5479395362810904, -0.08596767093518126, 0.4086767538498997, -0.05428603577684944, -0.6067060239796866, -0.013774276013161856, 0.5646523709320106, 0.07355620491475208, -0.053886065096847624, -0.18805519776410895, -0.013859994378934879, -0.43214819897648893, 0.291144134432862, 0.22768464978827285, 0.31607801117462186, -0.04639553140944622, 0.09550904886009018, 0.05054849017116442, -0.3987165567215472, 0.1048868484843242, -0.14885436236335478, 0.04050112774764, 0.326984195456056], [0.37352040199531605, -0.26073789132730735, 0.09498207449473818, 0.4961558111772907, -0.16228993795084765, -0.0397398699387636, -0.16153804404195166, -0.04188084147354544, -0.2523374178617012, -0.195056754051196, -0.2884856120771349, -0.24374638299957693, -0.013570196183059862, -0.1400197648114409, -0.15955770479782302, -0.1273287415060199, 0.12689163781866794, 0.013994095292735001, -0.07896671172793852, 0.15264386107229394, -0.14785616366001547, 0.10317917617761224, -0.6265565191469766, -0.09901384313493915, -0.12272986730107906, 0.006823015552784502, 0.11040466864493591, -0.41203880942444226, -0.18517620314207597, 0.15921823583749903, 0.11648659443757953, -0.09439192210343347, -0.02049818347914301, 0.2762681121159782, -0.13679187757472475, 0.20204595845043938, -0.2621307295536346, -0.15138910574212594, -0.4289635398566692, -0.37286325762824946, 0.13592799703291294, 0.1449266287097853, 0.30425185433576346, 0.2189717122839906, 0.09758546430342548, -0.21700111196851804, 0.041926496789331476, -0.1579505323569183, 0.19884422239725338, 0.21244874534679517], [-0.18913193445064128, 0.408989347861807, 0.17600776089216424, 0.13064902086907196, -0.17460586971321032, 0.26431184421355725, 0.00917205368444711, -0.031142559566041117, -0.19689436878111147, -0.045029452622334966, -0.09329502638312089, -0.03850111378487342, -0.0637856299644559, -0.3611011528771886, -0.11056572529155466, 0.02398118692857055, 0.10053163012901535, -0.12238673835677862, 0.0318441269923805, 0.138637777534143, 0.09248272766582569, 0.0782065101800004, -0.2392706686970799, -0.053061939750887695, 0.02411794593422963, -0.025987803292867217, -0.03351708268936269, -0.1935137279979487, 0.03312520906186603, 0.10780829728065491, -0.09276760061545258, 0.006205206859608807, -0.4683145284623012, 0.04850209785254541, -0.005191433986551281, -0.05887818884576861, 0.04060972698521961, -0.4524667737911344, -0.01766651305537231, 0.0039558690261819705, -0.1505541168425182, -0.2171265935716106, 0.07307185832343328, 0.11210976501146964, 0.30274560390555766, 0.012440320226710024, 0.05941778917416649, -0.18581016542609818, 0.016261030755844938, 0.21753730791688614], [0.2221755299883649, 0.11997597491035765, -0.03355472613059071, -0.07430453323228729, -0.32964087100587297, -0.0903467358104543, 0.07756524665473549, 0.14948694187546638, -0.180817845298641, -0.12707785298968713, -0.3235804835758526, 0.09618175651415388, -0.051868224025112444, -0.10882019358471684, -0.42530410749282405, 0.29566032386748364, -0.09125705318145175, 0.05975527960015159, 0.18571208892989552, 0.08200462727529169, -0.01905633777633427, -0.14173141022828586, -0.013788063555624267, -0.2024103394187429, 0.13341115364340422, 0.06781073350811985, -0.18072528480804081, -0.2975921369742127, -0.022983179069080904, 0.018640646849143568, 0.09322834551548444, 0.04954373078924189, -0.15904351003041586, -0.05197083237985482, 0.019586420784222104, -0.07524545333042248, 0.0007571044307475564, -0.2927282351837708, -0.016352785989020013, 0.0629946172378913, -0.23097069953346813, 0.13723179129983337, 0.1606588439132918, -0.038890646152298425, 0.3740038380390153, -0.11398642774974649, -0.17700845204576168, -0.10423962032212915, 0.16623173459806387, -0.06023503847679846], [-0.0394403272743611, 0.07462246359847464, 0.1065193249663382, -0.1023988533383469, -0.06930149700632544, -0.052438504874250266, -0.03593946630358736, -0.15951064942713933, -0.025443574694349744, -0.09805926228923091, -0.2233390260664825, -0.0812960880717982, -0.25166193424130895, -0.013816177060236159, -0.23575703221389685, 0.19387909016103438, 0.2524592732560673, -0.15702192811360421, 0.14630060564933256, 0.0887290350790938, 0.010969405628676685, -0.03765428577676225, 0.12110392980658699, -0.10495652317331204, -0.07548632494278058, 0.10995806049591492, 0.003454674646671413, -0.03327995604301363, 0.23617418178103836, -0.2771147233652426, 0.3017635450139804, -0.038224278067069434, -0.11033197086368812, 0.12073633984884496, 0.21225050574831372, -0.03481592228171601, -0.15422434990767006, -0.14822083584086707, 0.3377366895145547, 0.008600725983563368, -0.0055777128073812715, -0.03389997622504922, -0.025712010953511926, -0.05792923674238937, 0.22096191461291448, 0.09910696831625683, -0.08280401997222112, 0.219203011382888, -0.05086717514746487, -0.2732432614729038], [-0.005784214723319098, -0.08340833136962293, -0.13352608109648398, -0.26473122163960133, -0.2918318543805573, 0.029464454094147694, 0.05303852617530017, 0.035276078812987686, -0.12369020337603272, -0.10514998782515639, 0.05076486089183983, -0.28838175117548986, -0.1956474591772978, -0.029713841420052057, -0.12583803279708095, -0.4247110488994595, 0.26157694167866913, 0.33258705117074844, -0.07836194688618403, 0.10059285228265004, 0.029845998561286512, 0.2753929925561151, -0.183842616156947, -0.10670715434873196, -0.03954158136544622, -0.0028854435235758117, 0.12249890029315708, -0.1902564392412552, -0.04072453271589841, -0.1439052049010986, 0.2542857980269106, 0.0707316642872771, -0.30004991356888805, -0.01924158335358668, -0.1537610209881899, 0.04034662771977365, -0.07256272083425236, 0.13339625298919444, 0.1132888248458166, 0.19070512722323288, 0.4030946546635559, 0.03596716653655111, -0.02587338031898146, -0.04462411424234197, 0.19319488321815537, -0.0382231953157121, 0.13586040651992104, -0.32026351702473205, 0.02623465831934589, -0.3348212882220115], [0.023386372954773072, 0.07706025866227545, -0.027649548075409897, -0.2829963971480248, -0.17886388922932145, 0.011666756527978599, 0.18132287462237712, 0.0007324147012778351, -0.15837969596476548, -0.547636223826091, 0.3216101660496556, 0.13274397162145016, 0.2405644607926162, -0.008724886076636648, 0.1637505372740623, 0.015597270651336302, 0.03674043064464664, 0.16302259216638867, -0.20487066174958599, -0.04508166023738753, -0.0343677768023017, 0.15939390200081915, -0.2969198885804056, -0.12852257429954547, 0.26554907784833454, 0.07069969537313923, 0.008125330877488313, -0.34362129573513583, 0.04421557448476605, 0.10899979859674683, 0.029767102011507746, 0.009153210067710518, -0.01947019096091389, 0.27204620120469913, -0.3240020337362756, 0.2900765723790797, 0.07478787265381134, -0.029930974942758114, -0.04861974748909188, -0.12737263236066976, -0.030461739699573588, 0.012808981306287189, 0.3104108225934033, 0.23311118624144048, 0.03259874903978203, 0.08476654354445713, 0.16710531519160862, -0.17649146115665804, 0.20689415452733678, 0.0025249655545899192], [0.14202213249247686, 0.2023453501308788, -0.1943963181303954, -0.13539894568951277, -0.16154514794471828, 0.06568153432722465, 0.423544428028423, -0.19208225147460534, -0.3456481559638378, -0.052560970956116455, 0.10163506515339085, 0.17086066281025916, 0.20809221506919806, 0.14307530614594782, 0.2722028552414526, -0.17362736257656, -0.2191764394191531, 0.03361228883621879, 0.12167733101872959, 0.10284539703098303, 0.02515960306753653, -0.07292234135821633, 0.11231318880153823, -0.22126676918849406, 0.3237483450370243, 0.05377591295705698, -0.34841619768067383, -0.16056506473337, 0.04870681156061359, 0.5601072965156849, 0.035161630146850684, 0.13361920726430682, 0.08125186785970781, -0.017921532075296787, 0.15105670409093871, 0.011959597498559803, -0.4174446208902598, 0.04670299821259583, -0.23509078132916653, 0.05793645736749683, 0.2724697806948077, 0.0670476962688178, 0.2767531883211052, 0.5603155033523899, -0.03962873000456507, -0.0888337220857002, -0.005146448009205324, -0.5780205387403031, -0.1585934154988784, 0.3971254234260684], [-0.10764161588280056, -0.18827215056221436, -0.32619295781397806, -0.7729074607018694, -0.02234640881579793, 0.12016302638649966, 0.3807943951080083, 0.09312138757887861, -0.00969706338179246, -0.11214583476427847, 0.2887669099359966, -0.12452111099117757, -0.03670193322272074, 0.3349177681747383, 0.5369696299076956, -0.4615614016364705, -0.09084109563890248, 0.08497939619984195, -0.30964937396303244, 0.10297549266829248, 0.024713280643393655, 0.21258800317310714, 0.1406952316015136, 0.05016077997030401, 0.019195114058263536, 0.12884310809789523, 0.06971336978538224, -0.027542436845214305, 0.40779463844136454, 0.473011856516971, -0.13449515019265318, -0.1955762693550126, 0.027736955972759582, -0.29185002605435323, 0.040646319381382905, 0.2962379889676687, -0.2977474392593219, 0.38642992684039157, 0.06182196853573232, 0.09867132500950027, 0.09031888120085682, 0.3282336721438873, -0.04551416632090621, 0.22998580806802912, -0.1992140926101427, -0.02161117377406805, 0.0011390836698416632, -0.004584891647229545, -0.054528570892866494, 0.021928003529161775], [-0.0046106408957909744, -0.36518352174034663, 0.1800998067705009, -0.32966848823426276, 0.2576580849463997, -0.20338445614988046, 0.318150067999529, 0.06457191708250024, -0.1262478797640642, 0.12914751589164547, -0.44393506692545565, 0.4021780637028995, 0.1666830862621518, 0.2072515074126317, -0.1684135899067543, -0.26316743887461524, 0.05531289020876075, 0.10673406144099658, 0.016853538708356118, -0.2579233221711812, -0.03500914616254746, 0.1246934630459569, 0.16944049220690868, 0.5221363177054701, 0.18726805115942277, -0.1443490945344627, 0.08507667227556298, 0.0191830555375301, -0.009465273443765009, 0.2755927633492952, -0.0430134295825609, -0.28397810182015787, 0.03448472834078509, -0.12374050093408208, -0.3157098468032226, 0.3826271529380632, -0.42493749792377916, -0.13104318438483295, -0.07910590963037487, -0.03778039782990167, -0.3384728393272539, 0.4026532360128801, -0.3084207401142934, -0.32104203517777546, -0.4142418719294776, -0.2467156987614619, 0.10438718409568279, 0.4486396830435452, 0.25526942369492306, -0.30884152946302923], [-0.36464579043746825, -0.34478701250722155, 0.25826166104945525, 0.0284233043573003, 0.3352870613409154, 0.02529362047893346, -0.3164847270753962, -0.2788049793307121, 0.22523745720327162, 0.20661753659127585, -0.1637321973964468, -0.0365704143161265, 0.26994118240986537, 0.30252930985193127, -0.4672834796172833, -0.26581558207566547, 0.18169930055378053, -0.1764150760736187, -0.10430220338281827, 0.1049609768924159, 0.3820485280407592, -0.2961573543408714, 0.34428004267146206, 0.015940380806664607, -0.1057296964175798, 0.14919780800919477, 0.13401915839242892, -0.2758673734308116, -0.3979295440779711, 0.1669264308126547, -0.030486558767318175, -0.49535976833519324, 0.2532086897388304, 0.20678591654482875, 0.022334919650350248, 0.2298919436210686, -0.055595808201852975, -0.1483281799069768, 0.10285455137396034, 0.32690650604801286, -0.5505854860701991, 0.33306758833153677, -0.5080721081452321, -0.4009231743125349, -0.5004224823667581, -0.19405097784127745, 0.23215105262965927, 0.5101379342027421, 0.2818959707030357, -0.2274202018744562], [-0.35474383603917825, 0.008639334401142064, -0.43352166758130944, -0.003906819922367494, 0.21414068138700929, 0.3803049579671347, -0.3698705937427733, -0.3095770755926108, 0.37725840859673687, 0.12945731791546813, 0.28800727977820034, -0.6656178582454263, -0.6999496508924014, 0.4915277667953573, 0.275325764546788, -0.2545157429750433, 0.04778619713213737, -0.36127211332348147, -0.2058356520579934, -0.22646067408799472, 0.16608113820876327, -0.22204755282026473, 0.3425478441525489, -0.1385118147256856, 0.0809652911584918, 0.776226281955038, 0.07872183775505635, -0.2834111249765536, -0.12543868084765578, 0.09421635572636715, 0.10152306829023686, -0.07676566931461115, 0.1408036597640227, -0.1715571301845028, 0.32000458903738793, -0.22608161598081417, -0.05144022686973278, -0.2586932365399417, -0.12431848941495571, 0.16825774218582062, 0.27091230717086384, -0.1064225002410889, -0.020344316315120754, -0.3279127746203494, -0.3082530953840683, 0.28341721658293856, 0.016690323058264164, -0.003999914295839449, -0.12072132533011638, 0.8093406912150669], [0.10464251880013985, 0.02831325734969141, 0.08372728527164983, 0.12474399509792616, -0.05922997472205183, 0.045222246675172675, -0.288418979564849, -0.06728106545193775, 0.0393530205898696, -0.256863094967192, 0.049989779319788284, -0.1175313285229579, -0.24593929431199024, 0.1938271145798734, -0.05510412538974683, 0.09118726899419326, -0.022093777506464858, -0.02849370197400609, -0.08943548077664827, -0.018371723992963374, 0.08988290455659777, 0.25337741742374836, -0.23669730098471745, 0.028296049761037997, 0.38764885427484425, 0.25100425711910274, -0.0004334860554752891, -0.42767473361027514, 0.04843528463810304, 0.24584222843172215, -0.03323166112511089, -0.20560676706842038, -0.1223912186334747, -0.2337135583964058, 0.26094109997213905, 0.3971491412026205, -0.21191976597494988, -0.02493538397022956, -0.1290183028320977, 0.5359001574060515, -0.09669924936842007, -0.052269347758569736, 0.03060127685069443, -0.21396827440852356, -0.5333990892974094, -0.012637106849631798, 0.22429639490662173, -0.07858865465689965, -0.0003566728748982656, 0.3469441041429669], [-0.16627032727686794, 0.2547631376984347, 0.24375559047536158, 0.07740309382432459, 0.017568089852663057, 0.23094422173245502, -0.01851862320198457, 0.2421401846182755, 0.19117072320833636, 0.009258719421643453, 0.27084653685870635, -0.33513634993042274, -0.10450241698472516, -0.33057987141097944, 0.0492580602020182, -0.5072084395780934, 0.15636033696284327, 0.15913125968880304, 0.22341194773726564, 0.025905551038428738, -0.015522208993273395, 0.0708969841575757, 0.03422042890049819, -0.021771583106989068, -0.09513585798988078, 0.40152426566273525, 0.25454920848070894, -0.03006456152742363, 0.21056332155834648, 0.20886676596152126, -0.0650173693632499, 0.011469168510731745, -0.14308428900659448, 0.3079995552523013, 0.17418913289894103, 0.1568092430733023, -0.03817296558660032, -0.10076423343191802, -0.009236974738865148, -0.058777920457012134, -0.02780386399581779, -0.012201900682537577, 0.02598630247762124, 0.09076157189874687, 0.26733028085986943, 0.1528605540879385, 0.4076617215306429, -0.040300059757134465, 0.25665960326568715, 0.1290878390585527], [-0.007472631366164394, 0.3254194155150468, -0.20585767687092155, -0.06823038439813313, -0.11713403373520133, 0.17064329485918417, 0.23388308725854093, -0.006034704805590892, 0.2218307564425211, 0.03749933137700191, 0.11764308565579529, -0.014092214499197656, -0.16121704926863542, -0.2783588315791419, -0.17164462823064627, 0.029483725452639387, 0.07467263101709029, -0.11293264569191666, -0.43246690092856527, 0.190385849956697, -0.014053982463925488, -0.019607512361975797, -0.1195707560938774, -0.010338421885141695, 0.0069474475821994066, 0.10853011512531653, 0.11643900907020108, 0.0939897298126159, 0.09654237305913137, -0.1883717304534234, -0.2455317119434433, 0.2904363305508463, -0.3115012407694349, -0.35398517704690907, 0.19662930274601406, -0.06842645481634195, 0.1566143293775512, -0.3593938221013776, 0.05197559792939809, 0.05027020829236892, 0.0416332729372243, -0.30999271672600454, 0.2413380931478791, 0.00668315233446435, 0.2338610374241213, 0.056090398933066485, -0.1704076822510634, -0.12576792542468954, -0.13065604524092625, 0.009527809578712233], [0.3310995947744554, -0.0418443119510793, 0.10284384706143918, -0.3953861081246633, -0.23426928788025292, -0.24803651227361295, 0.07560317737096757, -0.015417169268368853, 0.12412433599230151, 0.047940580760656396, -0.2890629954083193, -0.02663642997929791, -0.09851039611644807, -0.1752451918715844, -0.10411997365253514, 0.04153323912408797, 0.005461902601200249, 0.010784896756299697, -0.09836003863424293, -0.045339296645001484, 0.03735143780443874, -0.07705928939979685, -0.09981825310644016, -0.020886787844480077, -0.05631134515780491, -0.0055738892743921065, -0.15860001134168278, -0.04134451577641225, 0.08156046461285323, 0.08541209472523338, 0.029477400176132203, -0.08487589458769522, -0.3329617454599687, 0.1859810545521081, 0.007502811009275875, -0.07157825846927977, 0.1332874227578008, 0.13769209762983675, 0.007580574600446557, -0.10074615388825055, 0.11462902124630314, -0.019066764496815776, -0.025351352390994213, 0.1596436328519069, 0.010655763966875578, 0.10332033606673272, -0.09790880259406072, -0.22124998554188316, 0.1049041415282632, -0.254960137581054], [0.2169612809406751, 0.0399280919506263, 0.15250722058748112, -0.1577798650268369, 0.0302997004283109, -0.006706686450989991, 0.29100623342381216, -0.008755378488870444, -0.046245766897422755, 0.053274071636973196, -0.08577682456843784, 0.14092768499573297, -0.12147542172594902, -0.059150501021616765, -0.19505195634077827, -0.016131363116533133, 0.21316304572356667, -0.12200933649918594, -0.1579984728287728, -0.02154038808809355, 0.17734543450580467, 0.044301551907583746, -0.08519408672492809, -0.0032480623110907117, 0.03950168764943053, 0.22062879334691068, -0.2284450587339912, -0.21005394029502353, -0.06341410306587326, 0.19132958625075797, 0.0007181466197114788, -0.09761176327780542, -0.2931462406659145, 0.039066216591048745, 0.14641095356530562, -0.08232756835816905, 0.1428041177284931, -0.26976952797132353, -0.028763516405588288, 0.01886498602040511, 0.032852020542952484, 0.038961886863520666, -0.16072171414205536, -0.15811077297336232, 0.12519635254789174, -0.05700870161320216, 0.06012447761075051, 0.11169532968486731, 0.20447270993549163, -0.21647275579635172], [-0.18896186842598497, 0.03407250564469322, -0.052214574431576656, 0.1460749278479977, -0.182741206295315, 0.34021808845956103, -0.1433241843924828, -0.2548021222695763, -0.08534907269163629, 0.07548201844169498, -0.2203508857879546, 0.38319937306738094, 0.07051474549321503, -0.1366536446693684, -0.26799263668225637, -0.042122827380980554, 0.08127693071696795, -0.07536897230299072, -0.4185465897757208, 0.09392736052307883, 0.3508538815099701, 0.2822649806152621, 0.015245793215669191, -0.08546675977658155, -0.008276085004074014, -0.12757864958060475, 0.0719801415409371, -0.10557075345607247, 0.07253506848453513, 0.016310734224373125, -0.06689047505262613, 0.029155633000596967, -0.26335884611618343, -0.23333359812633872, 0.015820342272853234, 0.1213352623745388, -0.23223452539975079, -0.23849949542529167, -0.09799804908876006, 0.1478147629743612, -0.07268419825958815, 0.050000188952949026, 0.09720433245579574, 0.1357419601925359, 0.15061678426740147, -0.01741266847684747, -0.2445474914486478, 0.09734407266110037, 0.012381395383400294, -0.015074187485530834], [0.17068667375473465, -0.34734577912637626, 0.05551780101665668, -0.058694475756097673, -0.08632366602032034, -0.1390022817199624, -0.008709786665499122, -0.06900797692068306, -0.033921339487700576, 0.12396351404135078, -0.08117566452704289, -0.017852466096314815, 0.07808164395849242, -0.0802957502480141, -0.09994411994938109, -0.39955668325990024, 0.09613966629323943, 0.3282316153931386, -0.3629979718234857, -0.1413275412545787, 0.057528130450179585, 0.40845518300913297, -8.888893377588351e-06, 0.010012597281207023, -0.023274566219313307, -0.0962858886251411, 0.11140922847086628, -0.1351800740166278, -0.033609878887959514, 0.07573775326013087, -0.028281907535788485, 0.2748231984716343, -0.12763059196253715, 0.12763806785153273, -0.25955031187813415, 0.37917342297494655, -0.3893499223475628, 0.42039470542451746, -0.14732635920277257, 0.13743506915925804, -0.0012412397743175156, 0.14138276713969067, -0.12295648853994871, 0.022301974789817526, 0.2660234029769929, -0.43291860021447864, 0.25297319219810305, 0.007602415915152237, 0.223463554163008, -0.04663939629766992], [-0.000835576501480482, -0.26380564741500917, 0.020661160712666264, -0.37013855698383846, -0.08926647823168274, 0.10595151447584089, 0.2795571007757505, -0.1965196688683885, -0.2353689785187751, -0.3778504335169215, 0.36084638701524074, -0.28270488676748096, -0.16814984994819837, -0.2267924242365698, 0.06656157219801426, -0.11590345727126075, -0.04740564177506375, -0.14375837923715928, -0.4692904307380559, 0.21970246564314014, 0.11087590064434033, 0.59350378753077, -0.07758258337536383, -0.3077798705598906, 0.15225980684774856, 0.17004848241213943, 0.3501983154253035, -0.4285062020675321, 0.2845826569141916, 0.6101558945252954, -0.2078862995404441, 0.5098803798646199, -0.3303362372595195, -0.01218887857540617, -0.4634410527122592, 0.2781993950034259, -0.37407038330570824, 0.14885416269760446, -0.25496352602088707, 0.20358730278298562, 0.4743250051455988, 0.07490430568295768, 0.20858284667200355, 0.4212379887776789, -0.2581748391621513, -0.07975957581127534, 0.016935579325345566, -0.2206366544505981, -0.002692105906133269, -0.0537227385155884], [0.11303510353906049, 0.13654865056272888, -0.5821215692814626, -0.8920536307463264, 0.06941213219268415, -0.23419727564071496, 0.1103887694774391, -0.044947711142520656, -0.25305662272625806, -0.03559810056281607, 0.1359798941700013, 0.353960492568886, 0.2282007387907915, 0.09583140341785014, 0.3479978299570363, -0.19188432115110549, -0.2801348844262373, 0.08092741505594879, -0.28230507740198474, -0.21671937375126846, -0.07282040189671196, 0.032122067822673545, 0.35631725618756666, -0.4115772957150903, 0.1906009731740091, -0.23137530654133534, -0.17775269221341103, 0.16894796261275177, 0.4800583085373114, 0.5135892617549263, -0.15901510282887424, 0.09391784945336368, -0.08642994938425833, -0.2946775481189809, -0.07090451773248166, -0.09979341457264652, -0.4176617023327193, 0.30027930253639007, -0.0068842362167873955, -0.4615162107480978, 0.19531708161511838, 0.4033377873117549, 0.060634044037065155, 0.2684763566150758, -0.17184480626667134, -0.12842057567758636, -0.19759425286936597, -0.8174033527023032, -0.11546795725527571, -0.2560697438066123], [0.4837546679292153, -0.16886018190546853, -0.17281553348039824, -0.01823707768754617, 0.12878721988198902, -0.0409693587054044, 0.1542785980261666, -0.507395756862239, -0.5798110087378842, 0.2849132134619755, -0.3079277479182259, 0.4333386583070387, 0.05943981698722392, 0.5763719171234244, -0.1290552903218493, -0.3916367129165017, 0.025778122631010432, 0.2575291736992441, -0.05459041513544507, -0.1843907856959568, -0.07921712116317343, 0.011086652823075823, 0.07588744041485077, -0.27172369005056013, 0.24378360688466366, -0.23601283618089353, -0.33204913244703566, -0.5153624427638773, 0.06206382828063914, -0.27498049481563985, 0.03588824848577491, -0.2986706880419802, -0.016308529752343637, 0.3497392152255674, -0.1134364975030301, -0.20527222181306876, 0.08314794535422891, -0.17642098484816376, 0.02607357545203677, -0.6146612013489992, -0.28516424398712087, 0.35780331622766876, 0.396661258905996, 0.019063359696439894, 0.18206543655460744, 0.03790218588716951, 0.22717343446945076, 0.3508008138359863, 0.023681958933140592, 0.13483107620594245], [0.03432732715201285, 0.15783508391820897, 0.13666247399865047, 0.45976383023365675, 0.15808422776051484, 0.0705687848126857, -0.5660644223654006, -0.03974147406017063, 0.05101746059065193, 0.0673147112510333, -0.6515503192850061, -0.30255438588775785, -0.31765650663868067, 0.3086212211727035, -0.04588853501065204, -0.26347968915059117, -0.20897659768685134, 0.24557888946124168, 0.3457503944784999, -0.3621453624259013, -0.019388558100193715, -0.31083462739998424, 0.49874337633133053, 0.14409890350934335, 0.11266989810500655, 0.17701323939067112, -0.18038557295581717, -0.3068232065703044, -0.5380249322563965, -0.49809929868757596, 0.2732464068722175, -0.0945522594767337, 0.18504845702836195, 0.37178190763762364, 0.15129712790783023, -0.4280712794896889, 0.13079682976698817, -0.3610712483859583, -0.2755370386222018, -0.20841211910602261, 0.21799269883166936, 0.41125348867060035, 0.30641990774765493, -0.6749901667746013, -0.13985347185576974, 0.18237711341421792, 0.21796420356570143, 0.049112795031110136, 0.05041576811052615, 0.16488682612534733], [-0.7132824388655326, 0.2296341094642108, -0.09609118167689404, 0.12559250443621528, 0.05297639740714126, 0.3784112448910688, -0.45651993538418173, 0.2562703770049299, 0.3987917312596602, -0.36013079440726875, 0.06458152805057782, -0.5828179846480445, -0.958282202832729, -0.07675322442555989, 0.27462421264622416, -0.28880373646049484, 0.3955040968838639, 0.041779269483811006, 0.29390086024194784, 0.24011368170493133, 0.00590031774923796, -0.20392957882858087, 0.48928558476387707, 0.08827304114624533, -0.5627058802096341, 0.7028172871180924, -0.00158700670228063, -0.10645749217445656, -0.2000356649991256, 0.03251492542931224, 0.3786180054084427, 0.35162962257230856, 0.24347682823348868, -0.06256470127260313, -0.011939967990653541, -0.16672517518003618, 0.2078677478484669, -0.2560984957700447, -0.02456023836405776, -0.009921672532344607, -0.05098835172228562, 0.02272595921943816, -0.18762443889818053, -0.19349178211510992, -0.28380426142158705, 0.31696379936072566, 0.2972533097971497, 0.21454795011877023, 0.06024960347836816, 0.3874869318886407], [-0.2603295547802659, 0.14309712251840045, -0.2609155405581656, -0.010763734900658538, 0.17092901475114006, 0.3077674006887988, -0.5376285648967492, 0.37450039148655323, 0.5236063464645806, -0.028251197692303744, 0.39956645554504483, -0.29199289346830953, -0.5760798881894985, -0.27235833231861856, 0.364787704681839, -0.2892442794182503, 0.13495887705413054, -0.08081107166337692, 0.5330262694721783, 0.06410914851374039, 0.2554869217045796, -0.12030658045713262, 0.3731535855769555, -0.002960275973201371, -0.5456449761097311, 0.9378120251145046, 0.25941820382879743, -0.4713874543252975, -0.5168937018189335, 0.08811850101841558, 0.25692211689755257, 0.39080722179237265, -0.26884654115186335, -0.10476991380975896, -0.14144957252574406, -0.02264845573707739, -0.20574718457171767, -0.2503025928007859, -0.5163861643067906, -0.35519437739642057, -0.3597452937015494, -0.5536678868034915, 0.07648319334870969, 0.01187180893164029, 0.09546603166120562, -0.019427223822606202, 0.3226108530587994, -0.24054848879194066, -0.08869188182547097, 0.7613619012496211], [-0.22182934566115167, 0.1080770597862372, -0.2851045642658881, 0.15863401653590434, -0.18648348078960886, 0.6045987403646207, -0.13121205285858137, 0.42549773796712653, 0.13747678214945455, 0.21916296871860852, -0.2057102072010615, -0.24164998048436093, -0.607076118135604, 0.47590206480790936, -0.08706079845764671, -0.0219685283198888, -0.18972940426705084, -0.4136811814151385, -0.05365212132533748, -0.20261707248250768, 0.013958266447379911, -0.1690120786052577, 0.18091580254848574, 0.09294052550965515, -0.07570267566360224, 0.8132458226760315, 0.23085154234331254, -0.3950774228320397, -0.16823795139341294, 0.2458283215465299, 0.09525596454029288, 0.4486329414629023, -0.09629075095069844, 0.0203083249127941, -0.04869591022029972, 0.38583764363344186, -0.3838204688325857, -0.3162317615226028, -0.37705464847604797, -0.45883954443499725, -0.4868869820991867, 0.044841471365799884, 0.05065707770713127, 0.17754968478139058, -0.3687637427332004, 0.07860238331085577, 0.012372085549111466, 0.08877336325159817, 0.08518076761143764, 0.6045081846525528], [-0.1691181289243069, 0.43768992603534396, 0.03791468708657004, 0.04434463291616214, -0.18466421359340154, 0.1552493060006556, 0.1138668577112305, 0.003670522997963943, -0.2649905788495996, 0.07773204898059984, -0.20412505691452787, -0.07400226671675474, -0.19885788283730108, -0.0352955101756894, -0.17997209800022793, 0.25500089285337085, -0.0754299076839463, -0.12653990912194768, 0.016346186285957135, 0.1128448144822551, 0.10352284143315058, 0.10714188687479143, 0.04865734861264932, 0.00668498935115328, -0.2559421636723142, 0.27590588499453195, 0.16863679736138174, -0.43609932367263116, 0.10575210387226758, 0.025818251649942493, 0.1456579960535138, 0.1653921091586259, -0.3034973283363899, -0.0008465726807757253, 0.1049574516289724, 0.12044815131482321, -0.044306837270271675, -0.3376267587110776, 0.20037707456191722, -0.2453805297838959, -0.2633937266405444, 0.21410843656460682, 0.04853322986830182, 0.13403575794165756, 0.10517449001709235, 0.04890315498604865, -0.09391430346578628, 0.08931227926054291, 0.06408091113400786, 0.035457044280373516], [0.09674547552241296, -0.04602440513217168, -0.14624363084071712, -0.32730358130420445, -0.012971156465872899, -0.10857012490324042, -0.06881896332472717, -0.22721378697315087, -0.008420971156971964, 0.12411062809992564, -0.078808345567911, 0.1081090453988575, 0.14582560062914854, -0.02923029646804367, 0.13213192381304437, -0.017240933903519884, -0.047590327792609737, -0.007474385150357455, 0.32337608220608727, 0.36395578501348447, 0.1273373660904396, -0.17210945539731376, 0.08339064252475364, -0.031353519700685686, 0.1540329773091813, -0.08106242769858872, 0.1381949735343582, 0.09153767378435014, -0.24254911392809542, -0.2010162559088827, 0.15530780249188858, -0.005974541306322324, 0.009308251645819296, 0.2030380325055816, -0.2152219458139409, 0.1485155127227098, -0.17904750973178896, -0.11701047056773975, -0.119964828543546, 0.11008510069816975, -0.1244243683876918, -0.04726663719287868, 0.07944389605307955, -0.01097132959509782, -0.09971571220168546, 0.08951028952120835, 0.0014248303145656827, -0.0477851769497766, -0.025083442767273527, -0.300323903642382], [0.14616646386670068, -0.09791195403148775, -0.1678726345493208, -0.1448856669011106, -0.0978554757337108, -0.13913085671551495, 0.07191194678448128, -0.011389902388388736, -0.08421262326379685, 0.12277554191446804, 0.014104225636033162, 0.0049105773013651145, -0.03889858405752294, 0.05745049697128542, -0.23378877938251863, 0.13781755139141502, 0.2172114758695861, -0.26344340075791506, 0.07371166943709496, 0.03776722853773151, -0.09259416183917739, 0.06056099368590402, 0.09102979900886743, -0.060741478177178475, 0.08316279447237743, -0.05456408861277606, 0.04441850306392806, -0.13443065773770096, 0.16037227121512107, -0.12504735153068652, 0.07588710067217183, 0.0626578509797657, -0.04322313781581262, 0.12027238208016888, -0.030420257979576804, -0.07188878585999525, 0.03681083421713883, -0.09663954293726967, -0.031015114864191944, 0.20426894903011414, 0.11318848333557968, -0.10169036886142223, -0.10587871470970271, -0.03180496838742786, 0.042714326382456355, -0.007685314437517294, -0.16796697766258906, -0.016862557493525245, -0.22502005082801677, -0.0598522165829391], [-0.31016076461944003, -0.02054614994520445, -0.010141378378895134, -0.041237245724010746, -0.18067616680541287, 0.038523150501231306, -0.0753980301625737, 0.006238264986926408, -0.4049089310129446, 0.06744555978348656, -0.043795204860347846, -0.23385447937046236, -0.3352961203216399, -0.043780904405699046, -0.3430903217371316, -0.4202093011427544, 0.19378649196816244, -0.020741997251955982, -0.282585785324144, -0.004071065814526205, 0.08116643485158004, 0.35353922928722675, -0.00956384233801921, -0.4263095725445948, -0.017950858599848293, -0.23435980956541697, 0.07982517985093479, -0.04283537399002257, 0.19802362454876754, -0.15726431833396307, 0.01834062155068596, -0.2451950202942737, -0.3391511607208823, -0.5638173307402589, 0.062220721122713235, 0.0656093870646156, -0.2869683113926835, -0.2242121774712442, 0.13440241198516964, 0.1391041533301142, -0.06483319892299728, -0.0857598869773739, 0.030544320460124657, -0.2358023630383738, 0.22148739928889796, -0.163965450941517, -0.20440325058673947, -0.008538568217049602, -0.0966268667274637, -0.2186569742574318], [-0.43276339889135323, 0.07636104271165362, -0.06672857531653771, 0.08802723703728758, -0.14357531116260308, 0.20137359088382886, 0.22109744265029563, -0.11626437679694515, -0.040142240555864274, -0.387447175135682, 0.3484041004140554, 0.07767744712089254, 0.013452012065116602, -0.27674885033128055, -0.28862008605001555, -0.038729101474549506, -0.1781391834188654, 0.11443029354037355, -0.023689625448445453, 0.26202159221198046, -0.027749891172300412, 0.36869423257035056, -0.4476495762627576, 0.22745234926467406, 0.009495881561984441, -0.17430425145919337, 0.04990194862970925, -0.08414487316172711, 0.11717256226026738, -0.08388627776367208, 0.2120005258978233, -0.14474514732495639, -0.24179510012806682, -0.3710204054693146, -0.10748853633149892, 0.22613494840500564, 0.186985145135911, 0.3125594505494724, 0.041113130388794696, 0.33763770823058903, 0.19445610480232892, -0.20903718493915344, 0.2438087349080282, -0.1526414200204969, 0.5509277744239593, -0.17096172236733811, 0.050790027383102676, -0.06811645567828611, 0.16717929627445308, -0.029444567361059257], [0.0039064958112427165, -0.2653282791741326, 0.28486997115564194, -0.5511461058310122, -0.4281659574096266, 0.3396341997669299, -0.051593852170214435, -0.24214675042725842, -0.14682492550287896, -0.23729649723554527, 0.10593893952465763, -0.05374008431949752, -0.1940456308272909, -0.1978119149810389, -0.10265786595020318, -0.061471594614728634, -0.16845647935951183, -0.06741335124436186, -0.5506391882281858, 0.4029037306844675, 0.14843532550729335, 0.4567796610743368, -0.24033302808107526, 0.270466487555786, 0.10002029439972665, -0.4956043479724951, 0.04383427549968002, -0.05885557902545515, 0.270352752466351, 0.09107788757900832, -0.149784057955296, -0.043666474403660366, -0.3078199287549684, -0.0791839145246432, 0.10775254245334799, 0.3541454578923652, -0.07881083016491977, 0.7132177148186362, 0.189061253641874, 0.5794050903250078, 0.12583365792453383, 0.11825785131835703, -0.14975764518557963, 0.15451562763235097, 0.3407687994626437, 0.009579641761862686, 0.2758003452765323, 0.06322055517386109, -0.21836959448540144, -0.03505410415786577], [0.38025471038145925, 0.14089058225341433, 0.2228098469777524, 0.13583002581117865, -0.7218864532649986, 0.007714465926077484, -0.05557247423632777, -0.25747940523382207, -0.1547841858690121, 0.02280691691342888, -0.2347366251916543, 0.27555495384374074, 0.1672457539607975, -4.395872686267224e-05, 0.49784668229368845, 0.2708231238791146, -0.2597701691135322, 0.06711100846523563, -0.4383538063130002, 0.06439786483261557, 0.03100733850873221, 0.025948674439492794, 0.13042754270974918, -0.11825404542767456, 0.26805514572444183, -0.43678957990904904, -0.4580420936093759, 0.2133283602939915, 0.3692147808211342, 0.27963050964522346, -0.12473386617558474, 0.1593141594313407, -0.24818605220563594, 0.1319334634944294, 0.5188091387605154, 0.17731736261687914, 0.03263511226516141, 0.37510358406401956, 0.22353260333486408, 0.18405514620417981, 0.07493994790661396, 0.1391883402376779, -0.07366570302137954, 0.7100754640857222, 0.27094650070496606, 0.2881559780502867, 0.12598337607159493, -0.08894043431165467, -0.35108792127616223, -0.017072955079094603], [0.4379830416930421, -0.08297807695107223, -0.7199805312860446, -0.2593719333058948, -0.2698875901541314, 0.17636378482390605, 0.47092091538680003, -0.3247000143467899, -0.724731480080388, 0.3679845470766458, 0.07773967903878617, 0.33126145868986223, 0.13454843909497663, 0.5808142566864943, 0.3294046011673275, 0.10851850870010349, 0.32323258909131286, -0.18553885564908723, -0.3805569348040335, 0.042723805374274226, 0.31396804717013754, -0.3633964612120633, -0.2408995264690136, -0.5808423545976252, 0.1163835013162979, -0.014170031733421575, -0.645956551166368, -0.1381065410380186, 0.34158360487209505, 0.8061004123202239, -0.7509468775553529, -0.5116750916345086, -0.5063344384280386, 0.3694186963602868, 0.11981869338218161, -0.48284414000775705, 0.1652559910069184, -0.15503677747709665, 0.2241179253671678, -0.2918067303758739, 0.13255763135804519, 0.08548145867658125, 0.11780834394554372, 0.6665443709552578, 0.28604136027176535, 0.38290987355570333, -0.4027923712005687, 0.1293689261704461, 0.008277358094440013, 0.20415338340328215], [0.06545031445897198, 0.6729280413122413, -0.09252188625753074, 0.1309924990848525, -0.4423642168603081, -0.0002173283930571684, 0.1991910737483917, 0.5794480438943523, 0.07852324737112597, 0.02599712617241675, -0.15101675253776214, -0.5006169591040383, -0.3348683255439502, -0.18144262231851166, 0.2943301518746976, 0.4897199104366394, 0.5605712250332134, -0.21996672813882454, -0.2083879776456481, -0.32711149355544417, 0.2768785618515194, -0.16725452429848583, 0.15553128770070362, 0.05048868884262062, -0.25217516708045135, 0.12130992578451541, -0.10894014417405821, 0.7192855621178251, 0.3592907747073913, 0.2087780154794091, -0.3740381911110804, -0.11480627100732488, -0.036769645059069156, 0.38621141927706587, 1.140104645449744, -0.19852362575319332, 0.22785694830344969, -0.2996729349241191, 0.29723834890366696, 0.004397938067018986, 0.3098148120872066, 0.03568929941737177, -0.6722260457757525, 0.09650249377763506, 0.20822457407941983, 0.01910394278839425, -0.2483143391199248, -0.2993201020803731, -0.042868015789405786, -0.0630109092713676], [-0.29606813874244914, 0.45905680515530617, 0.06474706361112524, 0.15563471411839547, -0.20787276993667508, 0.21263119533689606, -0.3034597572803089, 0.8070673467511548, 0.21974594664227706, -0.22920418555621072, 0.2920479811987755, -0.18222392341344654, -0.37141046519098586, -0.19732172964464015, 0.3105277185805043, 0.25937596021135634, 0.40738897366899496, 0.0078005288084371915, 0.001416579117161593, -0.3456403711445056, -0.10638765024547908, -0.28320249473847603, 0.14609210893611807, 0.34709010183830263, -0.5339041580011821, 0.32339234051035515, -0.12765819072827356, 0.9048325146283186, 0.1124047711305351, 0.6133297921861405, -0.1876814993058165, -0.06668905488377662, -0.14075796448942, -0.08982138860998526, 0.6088696352063233, 0.24056998889179057, -0.06723760773640786, 0.36384051700628456, 0.2929193529524065, 0.04346345923638766, -0.1628327464849463, -0.2912226667796292, -0.49057582551200546, -0.27156246603932177, -0.17635930853928755, 0.06554833757144031, 0.006678937738898764, -0.18156506752479726, -0.09966737007993781, 0.11301916792220129], [0.007122251318523973, 0.3286523900062257, -0.10033921103263943, 0.07047362221430985, 0.05892011834784305, 0.2897006760526978, -0.6253565780465968, 0.3602002919161297, 0.5771171359270391, -0.5445872955539162, 0.28639892884758217, -0.19460321527776683, -0.4039139677692733, -0.02724029740677888, 0.11237842519369871, -0.37538399585188675, 0.03287753521098775, -0.04414664304625945, 0.20557225001438634, -0.1321918192419261, -0.05398011640069788, -0.21955967109700741, 0.2653567019496269, 0.21160955686434144, -0.33278141725813937, 0.5032767456149139, 0.1983720322878926, -0.06486748136127518, -0.13863880919409935, -0.19284067835520577, 0.020217226538882346, 0.8306292679432167, -0.3854239790160098, -0.46301662130041876, 0.08275723455111006, 0.2987433176835826, -0.12196000059511876, 0.03736991588174741, 0.012662471496515384, 0.012814156467083634, -0.15498257485133274, -0.3565708594862649, -0.11018951646183955, -0.12182685730184209, -0.4133372516431067, -0.17947689726287638, -0.18015759985875535, -0.4066155965901689, -0.18481776201843408, 0.09983358667084911], [-0.5757914206640166, 0.0028178755758317946, -0.24437037116392288, -0.03573108036861585, -0.09308326131121836, 0.20872684697359803, 0.028664443565059393, 0.026062611577539252, 0.39459602739603966, -0.05716860512037616, 0.1923835899941664, -0.1376764022782825, -0.14172719147560267, 0.29130390065624145, -0.0381041236248035, -0.27396888087734705, -0.13665600849019285, -0.2365729395429745, -0.04616875365176897, 0.3497886321251291, -0.25317131897441175, -0.1670249032484722, 0.0975358027925415, 0.021194468915276637, 0.052036110155611506, 0.15033520283573498, -0.00035870913677105924, -0.3937019221356155, -0.08119992933684593, 0.22837178130107103, 0.16123271954872093, 0.3050886392430873, -0.19991047087242586, -0.1788653952965338, -0.3854244254303967, 0.32126806635221355, -0.30359297124415335, 0.012998898734225094, -0.25674385431530405, -0.2724343214830057, -0.270684996047004, -0.1329251578758379, -0.05027233243345389, -0.27167584080426344, -0.3012288561041583, 0.15184681060950436, 0.034596503716325305, 0.12138197350050985, -0.04088041326088551, 0.09878406830991027], [-0.08699383469235064, 0.2469459928030996, -0.33689875012724924, -0.30030725209976067, 0.04012312423798747, 0.15111235942022103, 0.01795500951481501, -0.1415048910904134, -0.22347491038693834, -0.22720473211658773, -0.13050624817503811, 0.06615562780938222, -0.30169653002839236, 0.14355313751341275, 0.3163511400134727, 0.07538857983539307, -0.18766259648604972, -0.23668554477325124, -0.0287133414485504, 0.13610245577741967, 0.08381617820134861, -0.011809742821354241, 0.08027220760108407, -0.10216911433460837, -0.14488575834936188, 0.19620700846842792, 0.030712356007048105, -0.3022300224741655, -0.17484863461824465, 0.12524527916448647, 0.11713821533494274, 0.21792056965273948, -0.009497857257829855, -0.07408231260675527, -0.04279922982309565, -0.012318477257812887, -0.08631185938803423, -0.029950936828156263, -0.08356208436674532, -0.07217248394498964, -0.10392271664468457, 0.20962651821504213, 0.24542373341473597, -0.15962772811293005, 0.07409833972623497, -0.050395365135544865, -0.008991168582411684, -0.04480016176667444, -0.09928034696506835, 0.03103692248327115], [0.025306283812176388, -0.3558819653317766, 0.08239275059159647, -0.07767680395893024, -0.004867596583093292, 0.046526560407280454, 0.3627635003523166, -0.1223422048268763, -0.007609648889776446, -0.22139052887436625, -0.036044500020814246, -0.0781498300730178, 0.19029561937530323, -0.015697295956765812, -0.13993397534317176, 0.032680272121190644, 0.21540390341229385, 0.010332632590937406, -0.08666182769614064, 0.002000559183351581, -0.25974375268520933, 0.09918141654601362, -0.012666286484571292, 0.11967512684239455, 0.17097449471336218, -0.3253027121933263, -0.023781251771176678, 0.11831381197999526, -0.2971599138831618, 0.019404800468472875, -0.12998274622240563, -0.3754924705703683, -0.03604627735470402, 0.09988507468128452, -0.08973796557961895, 0.09709250546132295, 0.1591368476266464, -0.052501344504378905, 0.060031440755049265, 0.09214374366215704, 0.1787255370684323, 0.024356015815234885, 0.03570534637897243, 0.0027540592407106538, -0.10754667180305072, -0.005736088735203946, 0.06779911933119244, 0.06535000981803267, -0.17042312376875385, -0.28232109174173226], [0.1472700401640252, 0.11845658388372707, 0.06860249634282094, -0.15088978956066057, 0.09302896409561615, -0.11395353344945362, 0.033450299501844666, 0.03819423766917347, -0.21406468970954468, -0.0022896348603767486, -0.14344136404531221, -0.18963504176976229, 0.10636867867567798, 0.10510807745917156, -0.29858494925716633, -0.16069902377728956, 0.18271058623974973, -0.22303243646726656, -0.03904392469578373, -0.095688222073511, -0.06042155266397387, 0.10604486338021568, 0.02408815103127062, -0.21409944997453334, 0.19242835081011184, -0.05494398155414357, -0.11908364367174218, -0.30638710069359026, -0.1004193105213864, 0.014804184102086936, 0.18496576643642637, -0.07973306416336537, -0.04094789398097621, 0.08683739860953116, 0.08206121893673962, -0.018184293030578794, -0.15343167901551374, -0.06374192518109172, -0.1474572005392851, 0.068336176758231, -0.003418272399859719, -0.024995475838869415, -0.23079133862045725, 0.05670525743587933, 0.10905055172116875, -0.05319020277828603, 0.018770222987398284, -0.018507697326367378, -0.02959029553798364, -0.001904596096175254], [-0.1271685331782926, 0.11080141580109748, 0.27186236042904427, 0.04532716612510111, -0.06268466964501467, 0.11414246490533322, -0.12811858381738597, -0.007358178825732501, -0.05849492196801205, -0.04417850136064405, -0.020289105066399454, -0.10652444979421061, -0.20513177173661223, -0.04415977776929651, -0.3766073952408693, -0.36550965627243326, 0.011652231366273106, -0.17320058695182494, -0.5075931088750079, 0.24914928614884724, 0.2050761582554967, 0.2873520619411804, -0.1389643877547026, -0.19211790283902494, 0.11788192437284381, -0.42699434056996033, -0.037423125228839116, 0.10319334478781637, 0.13317410290854198, -0.24658531554540083, 0.1608215457977281, -0.18686396881347178, -0.22079970163406698, -0.2391021354765017, 0.04119724761773247, -0.22697019246937025, -0.2914679489709836, -0.3036063113202344, 0.07943990246571232, 0.20525219565976233, 0.3323683915863384, 0.16592672185715773, -0.17134511796935004, -0.24384542117956534, 0.42861754192792334, -0.29289237205447377, -0.1325791363161155, 0.07037382888760822, -0.01721589258772477, -0.2782285394038133], [-0.06816749327269538, 0.1757018388108784, -0.05411699313776882, -0.16076669862762102, -0.11201377593748692, 0.3628050479218567, 0.08912554380010984, -0.27083389845464384, -0.0404435793481113, -0.4269894284999657, 0.34776209310262274, -0.10730520699692798, -0.2728033727547159, 0.06767154714217304, -0.38033157566995196, -0.22605462993818087, -0.03433506168424529, -0.08796485910771695, -0.24490811643535462, 0.5205381134115048, 0.1818471906878055, 0.09713944577068692, -0.3935095153217783, 0.0762044462100806, -0.18084192732243654, -0.1452362829616882, -0.03999923073759367, -0.09613943779011128, 0.3247593080901521, -0.03200025687280429, 0.142933153021624, -0.11258674402896482, -0.31424671127395937, -0.22002275024404175, 0.11230668302713687, 0.19276868253469634, 0.07887922363376838, 0.21133719551750596, 0.22171538205561855, 0.3254402454237983, 0.23973115037051318, -0.10532842487108067, -0.04732701573108586, 0.06499868872982995, 0.3848059918208324, 0.02333307197245447, 0.049294689809984575, 0.0648529550922938, -0.1827960301016585, -0.11269565391653012], [-0.24689104275921786, 0.4005399759132107, 0.402849132167253, 0.1928902904215889, -0.27959829939645675, 0.4077630736452788, -0.06176398640696963, -0.24223300310058787, 0.21902262214675236, -0.16890628905681973, 0.05928664719467675, 0.08546922686795541, -0.034157962713895394, -0.19403107175951265, 0.02372952805888844, -0.020743281731010168, -0.05434419983948626, 0.1490522647055929, 0.016786054971008945, 0.4029382358415432, 0.10447478643094786, -0.0861598986794942, -0.19022661176229946, 0.45833234515883137, -0.3279948181904624, -0.16297402931021807, -0.24661911562675473, 0.21088651801894917, 0.19438374876119166, -0.044103752134971475, 0.2206058276968953, -0.2066885312158496, -0.3247715870821222, -0.07944259521136145, 0.6287880953334074, 0.30299469661599254, 0.116505406125203, 0.5515106852226163, 0.28804448873446614, 0.5892187315890086, -0.16158333467647065, -0.13394892109326204, -0.15824043334488228, 0.034664077381884956, 0.38728731064659666, 0.17433129227951216, 0.3323024677419778, -0.13773532737459376, 0.07817792916857474, 0.24838891730567947], [0.1080171935980905, 0.3067406705408091, 0.29902249025503486, 0.34139696589756835, -0.5383988022957542, 0.1715776331431086, -0.1364267917748285, -0.11094606610173241, -0.010997983186426601, -0.16508785882227398, -0.3017652877078545, 0.19750975137765672, 0.08845463516506848, -0.12404000546311887, 0.227441171330512, 0.38679934651346115, -0.11983788032044196, 0.0765849276866139, 0.001118320843179201, 0.14073939857032428, -0.028463867698557813, 0.2512147524992238, -0.18948477827525834, 0.17177354881791648, -0.2668922704850955, -0.20766016911983842, 0.17363233607307396, 0.08927989727035958, 0.32076386801791196, 0.5443510032254982, -0.21278083312333282, -0.19094024388243774, -0.25819495484478444, -0.059306047192637164, 0.5850853328218403, 0.13321955644082514, 0.09266248772812644, 0.3975178135624742, -0.2714559282651265, 0.5446193265073105, -0.5351718235025777, -0.16646769935164224, -0.21499773515750087, 0.5648800814253769, 0.5071905850281365, 0.19332053029310947, 0.40515052629680764, -0.054249511510876015, -0.007718421815380773, 0.2910932375521239], [0.8796062604277148, -0.11878071555865789, -0.5106697506554448, 0.3935273108622315, -0.2776839434644051, 0.076695282547641, -0.24545528054676982, -0.15744815867806417, -0.5540293436291517, -0.012422004223488381, -0.18533839380785383, -0.011451589476284382, -0.0575259169201217, 0.5131053963859513, 0.4860445059786403, 0.06653034874425567, 0.12829825142841636, -0.25198808448012455, -0.6575880184741368, -0.3085949098326973, -0.07298248725007371, -0.45959958349254487, 0.1255565839063972, -0.42770904354364775, 0.04148709471317641, 0.1929602073061426, -0.46768955404212653, 0.1293777885951551, -0.08954121271610857, 0.3953246206048451, -0.6500081007771606, 0.08697166671246935, -0.13415401257896353, 0.21544941118628236, 0.5820615246743057, -0.12181781098596028, 0.3059937407300892, -0.2297933589034828, -0.504311465143034, 0.07999180222537755, 0.05114133614494683, 0.1530760349297931, -0.12475804052271028, 0.576109960120668, -0.07712541247441462, 0.13686655348140317, -0.2131944541398093, 0.031115211626131407, 0.008155284696024792, 0.4347212069771447], [0.35986148464677836, 0.25001915474551073, 0.00182815815702117, -0.0035008635183589203, -0.13841074820388424, 0.02274966066579153, 0.018014788998696917, 0.5103397528912508, 0.13800228323702, -0.002787190808193864, 0.1128689446490856, -0.03133323112803173, 0.026086411888590594, -0.49803472672077304, -0.08998805657171617, 0.37747926489629274, 0.3063100168589714, -0.23409450605647905, -0.4344993146094766, -0.2322544137905034, 0.07663726451817007, -0.17775786551811598, 0.1902653457959978, -0.23895316644775705, -0.2636943845887838, 0.2263271297176556, 0.10311024840252236, 0.4661662699878445, 0.0960858297861756, 0.5836371476208648, -0.5373884000777948, -0.12714267132932927, -0.08152249758495722, -0.41487871016929606, 0.8262340021428345, -0.0023712817524607173, -0.048246426139043654, -0.02567822272871092, -0.03369893627032979, -0.04895229511294733, 0.3957788710964469, 0.41842019021008137, -0.7517718974460439, -0.10269576784632127, -0.21818696552813563, -0.23897237480176464, -0.26555253704815984, -0.23253132043307229, 0.026940767856207533, -0.07623334067307751], [0.1073757458211932, 0.12856736925772266, 0.6143143507651292, -0.27681357301010423, -0.14400575189086082, 0.10234938856831335, -0.12909490264751797, 1.0045113875919796, 0.6374727223833997, 0.15370925729110668, 0.44223091123325, -0.049503562412818086, 0.19156999408097136, -0.6519475586470436, -0.44628808824660576, 0.5807209915366527, -0.014017134346730197, -0.1318507462504478, 0.07192703148321583, -0.5016175178603334, 0.08089464160430526, -0.06681542983030138, 0.0568210774671813, 0.5936778507475627, -0.2097757275205524, -0.00917451419137028, -0.1369515095475451, 0.7772631101000805, 0.22863809191470688, 0.4479733043770833, -0.7046077247983308, -0.36809942011903213, 0.05570774103163063, -0.20513978745256453, 0.2856977180295036, -0.2654688073212751, 0.11626277241559367, 0.5461714433457479, 0.08864203008062332, -0.31977416136646103, -0.05469127817591357, -0.10539551723391982, -0.5332437738818151, 0.012196079864827153, 0.044477547676932995, -0.3610364251428664, -0.12148290562958317, -0.13542265289745078, 0.3669720237039585, 0.05418048206529532], [-0.1719543805627948, 0.46324824192750214, -0.0713176989496074, -0.04831995291163021, 0.09805747883893215, 0.17687418612191105, 0.15868201278950103, 0.3068966379735503, 0.565640989466154, 0.03292973902830228, 0.34054202870472666, 0.24812346106501543, 0.5377210586787577, -0.0942786550391066, -0.2429967393518434, 0.53280787468327, -0.5396589874407878, 0.32533801076919533, -0.5164284157899227, 0.2512348274831046, 0.10615677115584243, -0.5151393180831246, 0.02534645546910336, 0.05419223807277115, 0.18139097741186377, 0.04548152500432711, 0.11932277557342631, 0.09932350490002835, 0.1976165325022072, -0.4105641416268806, -0.35180109669788223, -0.03815757893189453, -0.4837193607479472, -0.5181930908079172, -0.0680163109944314, -0.3551082036535074, 0.04008922800009783, 0.24515626985831396, 0.21948911360594223, -0.16265994652861004, 0.010060250739449723, 0.06931710600286328, 0.002053920566149742, -0.2538805273972236, -0.44403959031530893, 0.20854345333778526, -0.4644854847322861, 0.11556987145655231, 0.033536329027394236, -0.10620226757490683], [-0.5283462085204063, 0.6611452960148665, -0.2555003828195246, -0.11245063624731155, 0.09068921000573654, 0.030375673153689747, 0.09555545477417693, 0.2382824928903157, 0.46276629536494585, 0.1390391317541101, 0.1333790260012665, -0.044325433107805956, -0.2561346456533804, 0.26608101163323894, 0.011169588751165598, 0.22463561961525744, -0.4290917624822973, 0.2801293936833505, -0.3987457323732964, 0.20069459507316442, -0.13478783704365016, -0.23189266738645903, 0.10797883032007452, -0.16363973832900897, 0.07770124976440407, 0.3968212578825723, -0.062308261106498154, -0.09215451676362268, 0.1268434839921439, 0.02153296608570159, 0.02164429179747725, 0.5205228747274299, -0.06139198190229348, -0.45682784006542143, -0.0021530784843475353, -0.21631374739265188, 0.18735923381565686, 0.16565199673198475, 0.16189877096761676, -0.00444485071747229, 0.000541304014612823, -0.45994494467956304, 0.32043187221525044, 0.11358470107792155, -0.30618443405443424, 0.062237225195351284, -0.4258818744305842, -0.08552960421887587, -0.5154269526820061, 0.18084487658551204], [-0.09668569015520506, 0.04533710846864067, -0.165681194028784, -0.10062818122911224, 0.09173479602732702, -0.19150335954597228, 0.15862685176384148, -0.04189439886825727, -0.0631982426976626, 0.010651696221009782, -0.07445447838954149, 0.02474148643087978, 0.08293059656505206, 0.1428912025420169, -0.1177478460060533, -0.034534273082763474, -0.17950688685554197, 0.0045865724578069145, -0.17701641985551161, -0.0994784996260958, 0.014219715206976317, -0.17864771232531096, -0.03890814233624504, 0.042013760720637, -0.19747143340896614, 0.10872458955700447, 0.03213015078125288, -0.02595181103984767, 0.11066137683051211, -0.06941704313496, -0.20019597123695124, 0.12055075569414085, -0.1809692887137213, -0.04746424407919011, 0.09644814329739917, 0.030617778916514064, -0.03495700635439521, -0.02229572613456164, -0.1722544701239166, -0.024423685478401347, -0.2398770120344709, 0.35785562494081374, 0.03100437307487826, 0.17065373838162629, -0.10500006271178083, -0.02767329270854551, -0.02363181083318584, -0.09105451584964637, -0.14098818603569066, -0.04489639773253865], [-0.01897337694529848, -0.1995705245823196, 0.2336895291913496, -0.20582441777948005, 0.06727266354529907, -0.27252275431013284, -0.012529614337874476, 0.06263654181045353, -0.0008048976411165149, -0.10240506783280097, -0.24117133217416026, -0.10233212539439339, 0.03697523365036501, 0.16478004256325404, -0.14438760867523398, 0.042127038015553765, -0.21904917505238228, -0.06458314534425144, 0.19857090858172619, 0.08546993516971785, -0.16695325863760133, -0.05531964350114705, -0.07546709158167618, 0.12147981285076677, 0.048088820298977944, -0.06278823165462853, -0.22302864324282434, 0.06352135129994188, -0.2562727351220087, 0.027230442654522426, 0.028856567881211187, -0.1449764112574933, 0.09505081562276486, -0.06645316478180194, -0.1710768451432065, 0.00552212116996727, -0.05426962997190993, 0.016850085652522512, 0.12789351453733527, 0.1548504551367075, -0.07877629620139022, -0.002998685085072779, 0.09340033732155933, -0.14183977077311205, -0.10450633249868083, -0.041396441198638806, -0.016442586837029507, -0.10317173100910038, -0.15674782865997158, -0.2908164366641303], [0.04695220160702862, -0.24553980971222417, 0.03215327980654871, -0.03786527826348316, 0.045870783726885564, -0.17480761635995756, -0.0341001086963665, 0.03428528743272305, -0.11579354852947155, -0.26891624453992097, 0.04015156704417928, -0.11870366286166384, -0.03460055177842342, 0.018126947024974218, -0.1795390221982693, -0.00793597511633479, 0.30727036948054776, -0.12728400307937152, 0.015715490226456554, 0.15410916400306565, -0.11348834284789269, 0.273596418513496, -0.17586908149348923, 0.08661230691967989, 0.15640431856609527, 0.19395893044837573, 0.06437772427766489, -0.13798562764042677, -0.15706057872047471, 0.11928048109351669, 0.0771113243175807, 0.02811621700365067, -0.04084360464320385, 0.14784312383310197, -0.09899098981434182, -0.1577772577082684, 0.15661984948523594, 0.054332784897694955, -0.16267129672422972, 0.007804306213123002, 0.13402908278812448, 0.044475908322067784, 0.15367912377614992, -0.18634096085962149, -0.1874148733973436, 0.11623532279740201, 0.05358949245506139, 0.1697288261506489, -0.10506082719902739, -0.3287504690762089], [-0.07407520659993981, 0.000740957424500401, 0.05905354127617183, -0.060241213025979144, -0.10384517011141811, 0.19367530974864317, -0.12499695062482763, -0.08691640718474009, -0.20252202002177305, -0.05739346727901887, -0.11474477717818804, -0.10999709328694675, -0.1750813369300897, 0.051311444585272786, -0.4455911820398428, -0.3306396885031738, 0.012519933477334955, -0.08249109169207995, -0.17421122208494635, 0.11628758435906147, 0.20357572369136756, 0.15945624701010125, -0.15902051179585525, -0.30923785217823385, -0.10737023120292631, -0.20454381166203103, 0.05736641763706141, -0.05818934876152171, 0.18585785492264037, -0.09012602187269515, 0.05516873547092318, 0.12755642191329758, -0.19935183722705696, -0.19187546922923884, 0.27831509889678824, -0.1483115432351862, 0.028811063882377648, -0.09862912601577944, 0.34811199947834726, 0.09363629134190843, 0.12177446241567108, 0.07447361535695249, -0.21329833123513292, -0.173656934250022, 0.32314724107535986, -0.13832308315709899, -0.18850004660436886, -0.13722200550327912, -0.0007215535362005193, -0.3246392292993646], [-0.5120879728756951, 0.001816793458990196, -0.0008621228039895439, -0.03317176754520332, 0.059312498237674136, 0.23719736475660058, 0.04534536225906285, 0.3568289533959091, -0.11378012657124495, 0.009775631874764183, -0.11448556717720211, -0.14106197615074817, -0.23570685018444143, -0.051721402818265004, -0.15566980241229475, -0.05004901615226248, 0.019906996560844235, -0.18115358535693538, -0.06288140514368924, 0.11683302997071884, 0.24149202748663073, -0.12528489797300119, 0.14646778711698982, -0.27592109432485273, -0.0634523361402399, -0.14029335102960713, 0.022889515077638943, 0.15559348118444102, 0.02428438865192458, -0.2287982006782231, 0.06119266730904778, -0.2944750233783019, -0.12872558904669748, -0.21205324605507478, 0.35062813258006925, -0.05064070691291892, 0.1630773304979803, -0.25769057082835506, 0.2678624543970747, 0.237140088890949, 0.1129049746311787, 0.09204958910680629, -0.4000426852778237, -0.34536252561620057, 0.10205207268318774, -0.332370207102473, -0.13950191662225161, 0.14030083334072288, -0.2139254126720457, -0.45834844988899476], [-0.16862742806325873, -0.02276584921350115, 0.24811237083933377, 0.2793415781843881, -0.3773925808397397, 0.33159729794887505, -0.21390840065188405, 0.22926543330345292, -0.008111128737472792, -0.05378400321155711, 0.03004391146811074, 0.24881154849126397, -0.06534167974872387, -0.24519739816630068, 0.09231336567533766, -0.04953035760888199, 0.17929296426067803, -0.017304023638185256, 0.665329610883463, 0.12512265543133594, -0.17596038032094025, -0.1712230848530571, -0.1557829493271069, 0.5412148303140899, -0.3540101227138953, -0.2606706193700594, 0.031464177448972466, 0.41885085635804326, -0.18652559182084316, -0.43377669896715887, 0.5887029164271993, -0.6759099264129519, 0.18120175503922656, -0.4152066865866336, 0.43807635898565617, 0.22284265022478827, 0.26990953974143855, 0.25801231319353374, 0.12577801979640432, 0.07246005477020212, -0.5053589515328868, 0.10911426381783304, -0.18067553681567425, -0.49119310887954626, 0.21734699241789188, -0.19169576742431343, 0.24869169802376617, -0.1250170110475862, -0.08276866086446673, -0.30428669839237504], [-0.0308639698134845, 0.1916434232346849, -0.10568644251650042, 0.5255510884245936, -0.0715124659747814, -0.03855466433230749, -0.4887690003527253, -0.018527513532950016, 0.18701094964869003, -0.040718431376158916, -0.6914667543811434, 0.15046156773888658, -0.3300694427705475, -0.07047038949075465, 0.10815654735225468, 0.25540215320001686, -0.21151131004135942, -0.02886093447382194, 0.5480561984595363, 0.0052461084099975535, -0.03161790279770555, 0.17655548379640365, -0.26754613427840124, 0.17737975186758842, 0.01599421494123012, 0.2819579083163088, 0.21040154400352226, 0.3821859126243133, -0.117623475290288, -0.3119067406632621, 0.6159528342920908, -0.2906559208576789, 0.01914474355633015, -0.3659841207290265, 0.5742565270764295, 0.5843297900160516, 0.10349159332067866, 0.11698360659936534, -0.3438277147851188, 0.28081270386774565, -0.4919923521725438, 0.18264203271639487, -0.37289407077652237, -0.2695640421736747, 0.16479313822849512, -0.3867482717651673, -0.1378271031357901, -0.502153996915279, -0.07219465326751211, -0.1727379926731724], [0.22113520982480797, -0.36739265185563297, -0.25479308034842046, 0.2900204377727833, -0.1900581101945968, -0.024899859063489734, -0.4622439926801663, 0.06957747922176288, -0.2448617329690871, 0.0001128158619710123, -0.3437180840222498, -0.1316569914326029, -0.21149801267362558, 0.22148900625472306, -0.015948143840829865, -0.46516854404080904, -0.2526571950945635, 0.26260963369976453, -0.26791117185148167, -0.3015883022568587, -0.18803594064044848, -0.08683393876121938, 0.1508656133663764, -0.26908565096685, 0.1821612286977163, 0.0017981752309111445, 0.2575205481100076, -0.0919543966641804, -0.0069276420052954805, -0.14954087586459805, -0.04026601028797768, -0.09113212726589884, -0.09200496310124617, 0.09859947426181995, 0.08095175210064098, -0.17719044948785023, -0.013274514393891396, -0.18004336161922016, 0.16402796612078774, -0.3020212705132462, -0.16269578061846787, 0.2340980343015947, 0.37020064560098126, -0.05683330416433143, -0.18863835821136585, 0.034600751399066536, 0.09371581220448891, 0.12287171232692942, 0.04702978243609102, 0.32035264432332267], [0.39821826252377057, -0.44690238902954016, 0.18228873011418023, 0.41156867607946857, -0.20752110149679173, 0.04873854303493663, -0.17747682546778323, 0.6746105877065355, -0.3330873412571607, -0.21784338577806922, 0.029675038121242413, 0.19801248152862042, 0.390942282572768, -0.03127355608321005, -0.27363714527994737, 0.23303872801239425, 0.022939324065455416, 0.12967711347480207, -0.17476118089217133, -0.31265367220034973, 0.03621977385541593, -0.05382995170447736, -0.28606503790082854, -0.05901712837626796, -0.2094308608769703, 0.1426179085691583, 0.01496768258007249, 0.2558773047858436, 0.12710107447926686, 0.238532991107451, 0.08180514370530338, 0.7637893174790361, 0.0671193883948849, -0.36278124299614056, -0.259651273262482, 0.06913147743276384, -0.10842595899415866, -0.10368690640742323, 0.04091733758477489, -0.7125587817625549, 0.09468922592426349, 0.4666199396112725, 0.01141843868431019, -0.05008232410998403, -0.1536109340972302, -0.4283587232668707, -0.1783671416882883, -0.033145858304317335, 0.41302410019279956, -0.1137721691938763], [-0.4838512490055099, -0.330525036056387, 0.2626252318138947, -0.09574801182967324, 0.08811342183115439, 0.05984180467327216, 0.09949682555415292, 0.5745994679041505, 0.0839622957172816, 0.4236135879699776, 0.028112998014966306, 0.23193862950446972, 0.316548278843762, -0.044020959031281205, -0.22565989218228485, 0.4525193912013649, -0.3231294084438586, -0.059678569485759864, -0.5053292968614335, -0.08471675288469786, 0.08055355004320272, -0.2428659940566429, -0.03793374345823137, -0.12526233527039685, 0.15429084327007833, 0.1167000339742231, -0.04853749532284052, -0.02437436041858978, 0.45298416848154077, -0.2374818706161466, -0.25892234741853715, 0.00622060345244355, 0.13535165579132705, -0.1273812838792317, -0.11172973802763418, -0.7010886208219127, 0.10957974143936414, 0.2143680315043695, 0.27331949061726624, -0.2727655543618412, 0.19857433819388096, 0.4055049842161486, -0.12281445569117677, 0.03451291685894664, 0.27880752517946555, -0.06532700852186062, -0.6275415334655893, 0.6597795387790779, 0.28052397250256755, -0.06305929432791707], [-0.7770854632090229, 0.14588896740973667, -0.03797184867913929, -0.3254913677223218, 0.19365350855400446, 0.08873279984213421, 0.3635941338916844, 0.3282920769890223, 0.27633864783227097, 0.16828390400589527, 0.27508693778843984, 0.2334967777279604, 0.28712474858521053, 0.07703187477219224, 0.12801767251605597, 0.3391142106381006, -0.2774443889486801, 0.4443200188440278, -0.6552856334337881, 0.20475382400671405, -0.06268311316147405, -0.31211398735239015, 0.3261071450753271, -0.26950348245584355, 0.0002343406408088499, -0.19039881838868217, -0.2443025734811856, -0.26104044406937893, 0.4178130436599152, -0.332516374116816, -0.5138808621765425, -0.18730217898570406, -0.280687702539855, -0.3747640421107124, -0.43375070532771365, -0.531745452469384, -0.02850055326122038, 0.3199688120822802, 0.05313747964340811, -0.3397166809683723, 0.2914133128593633, -0.08096549675747161, 0.38285262836920286, 0.10724496064876628, -0.18242862196963955, 0.34087398916213385, -0.43406147300965603, 0.17106251243800277, -0.02317706308595449, 0.1629610336954058], [-0.17927023136454692, 0.34299809324849195, -0.20331892475208144, -0.5827280794004449, 0.13239267410905473, -0.10761506638185009, 0.2419683357198632, 0.3303257864927662, 0.2651046823982597, 0.26640638708969866, 0.14555182467950398, -0.3203528228834199, -0.3901458088134633, 0.18674251484201518, -0.24421296597922146, 0.05490919066842385, -0.0981080488913229, -0.0686213860026576, -0.4879935774758702, 0.15612646451064568, 0.0641548262790687, -0.02822307317327251, 0.1965213542524661, -0.2981978792025072, 0.11069103240467512, 0.34098595400785514, -0.19593736751731725, -0.3064961643654892, -0.07322212644069889, 0.21134181354877557, -0.19966464753604166, 0.16918274692744206, -0.09812987018366857, -0.34221764647810793, -0.32378224495297536, -0.17146503962519796, -0.27259619663044843, -0.0212159520257311, 0.23572566993632035, -0.18254271561650998, 0.12803889694802006, -0.06921193891986549, -0.03892940846641905, -0.10240388780983348, -0.28925331306797186, 0.1280092815779183, -0.4199773987340657, 0.29405818579815596, 0.11619337558163936, 0.11031931704004579], [-0.07804385002671564, -0.12957726485049806, -0.15681990358650127, 0.2262410530977512, -0.033757551280447516, -0.0787726706579615, -0.0182461097098013, -0.04126514157547723, 0.16286608583593368, -0.042135233427123046, 0.039197439624682695, -0.06541925027627465, -0.08814057041865582, -0.12985134560554148, 0.279993564371513, -0.10011952565804737, 0.015277425860852458, -0.009974018473303864, 0.018255289163193078, 0.045204610420487706, -0.0295648213765702, 0.0048384729841211335, -0.06428908687690199, 0.11134360251754719, 0.08444343846082443, 0.0774480498202571, -0.16542411439742827, -0.09232751240756033, -0.13314283628280177, 0.17921235146494793, 0.2106538737845923, 0.01309093302315378, 0.1736354592805532, 0.08901041062108488, -0.18025811665868646, 0.054891705010198896, -0.1429946554724243, -0.09510345466817059, -0.06542891284417925, -0.10156528898454117, -0.14670071879606467, 0.02988104966292356, 0.026122162961516114, 0.11195558755974856, 0.045938622395678766, -0.013785602774463473, -0.10338351682007597, -0.11473573078191371, 0.07189704905415005, 0.1377163295446088], [0.1832008297898529, -0.3325269038453522, 0.16452437680443358, 0.12303263250729643, 0.1084567147910755, -0.24624850353370695, 0.13448207063362214, -0.029141349618956473, -0.21972345905173737, -0.09233407800760239, -0.16238835706800536, -0.2407303409291317, 0.04761190065989993, -0.030744268273895477, -0.2399148641964074, -0.1769876302750778, -0.25267174641154405, 0.1426075956621927, 0.09546737831787831, -0.134025265123988, 0.053677276892210975, 0.010108299935263751, -0.01687082810109873, 0.013894996086029454, 0.2069415380398814, 0.07716333345799276, 0.059135029518440976, -0.0864712753843739, -0.49247598936641923, 0.1604515143798464, 0.01736631732237963, -0.1679472819489474, 0.18059045110938016, 0.24948364749594554, -0.3277016304067946, 0.05595458753961589, -0.03428745836173537, -0.0573817942169602, -0.253253271698215, -0.051174264682414414, -0.012589161785588996, -0.04239923768527258, 0.008528305766512957, 0.055754705853909195, -0.24548309442484, -0.0889817710987538, 0.1307246322604752, -0.13862617722020437, -0.05346913514300043, 0.054611485617781945], [0.20302846912114697, -0.02281193012245398, -0.04130453296058806, -0.03033812580999667, -0.06647794080013461, -0.41085567562408126, 0.20559207745496277, 0.28878060918170295, -0.046079888381843744, 0.071751957890619, -0.15726332477273663, -0.24417925089502382, -0.049259857251933985, 0.06385685718656764, 0.10264120592589512, -0.004978819152119685, -0.058859335917666566, -0.01629061754611364, -0.03265883799010221, -0.21433105621479076, -0.2442084729871283, 0.018382730202479932, -0.02532794302140599, 0.10419038837152039, -0.10984694220236835, -0.12021647733869313, 0.04973569161597131, -0.09525659340217965, 0.17111813473871826, 0.010523532033400078, 0.0025081158837142207, -0.04836949662185687, 0.030335736732286896, -0.018044331269128043, 0.09303314676778303, 0.03739468022599821, -0.01999015255820201, -0.07755134621592247, -0.10894027812516788, 0.009305859211872776, 0.2105001435198952, -0.09771301089971744, 0.21328674689957677, 0.06335869162837254, -0.2774093807138178, 0.07990730974314494, 0.0018677493151360385, -0.10072642869981338, -0.05515708812355593, -0.04985936480607649], [-0.23327643407143545, 0.004689050920932741, -0.015011558527968337, -0.23671825125039886, 0.09546757172187335, 0.2502448965443562, -0.0489053995705525, 0.021228407934228314, 0.073435498593605, 0.35517890497109644, -0.33771821587543904, -0.0551300719568436, -0.13062076687821828, 0.015582449406817247, 0.24749849194256085, -0.10808405065961549, -0.0969839791121604, 0.15755742348691817, 0.1098664150912187, 0.1464044622624912, 0.2428859088407285, -0.10512864147223934, 0.116599964528784, -0.04482937027991976, -0.04821722994607033, -0.2526560436107923, 0.18764837307993906, -0.0705689929442728, 0.4076850224145149, -0.4240724014644865, 0.07885050258428797, -0.15947543408936624, 0.08102929404928547, -0.20433932867836024, 0.38285633084569654, 0.029769134433324677, 0.006596426550670636, -0.09231401054681834, 0.3263585401236009, -0.04135129207116009, 0.08145902641160438, 0.03442168221841004, -0.14957012995068933, -0.19129483800969244, 0.04506146958350322, -0.31464402604306574, -0.014935283706539992, -0.21325444209152078, 0.21723294493710077, -0.4116584993462399], [0.03466085082171682, 0.149998719937444, -0.08646084226104009, -0.38642776497951503, 0.006965988639000795, 0.0733417962661666, -0.2157411623028871, 0.036551914367057806, 0.18454164565680176, 0.03978550867652947, -0.15458332565468785, 0.3572246455795754, -0.19046325272062636, 0.3048097575889128, -0.07932076637192843, 0.11238036852234423, -0.1593013099820366, -0.13314504857127205, -0.057131569147338204, 0.2737024489344765, 0.2847074123315402, -0.07918143599280686, 0.0522404813136572, -0.17007436099981774, 0.061518305020798074, -0.30621200536994847, -0.16585286807792982, -0.15062197608894634, 0.26703839131766977, 0.007145319430627481, 0.03331492103969338, -0.07611245244798533, -0.1198588694718012, -0.06810356454633919, 0.14020897962587578, -0.46182904148676657, 0.2088705019102189, -0.030762110005021277, 0.35502456759941775, 0.22433202455719434, 0.3128021994079924, 0.12980448286348487, -0.17242727773248995, -0.4321139369377579, -0.11057595116428265, -0.2893024766326994, 0.014586713189342754, 0.06858863065741858, -0.10215400696641495, -0.13524894616098992], [-0.3106515753519131, -0.0035475992012869613, 0.1283951408869184, 0.1930820128276615, 0.192466821936451, 0.23852862895324722, -0.11954864992158092, 0.19249943307255946, 0.07083320584315742, -0.02443622157473847, -0.16783668667392196, 0.18495756479076533, -0.25386278903346227, -0.1268856588419567, -0.023328169952357442, -0.26368431362632, -0.15614554746132925, -0.1330579005145356, 0.42179861715787653, 0.02625459142956171, 0.19953561824948693, -0.0019961180930202016, -0.3625033486155525, -0.024516737673907208, -0.4360862229106151, -0.28866464323819996, -0.17319611691394649, -0.16429389253649845, 0.12781991376464708, -0.21577348803084628, 0.44556733183992603, -0.3743006711631104, -0.07206342065104103, -0.2982489089162817, 0.21240956980061246, -0.08687122470581457, 0.3306292032063941, -0.0027679841816988203, 0.0029393117123110283, 0.11559095556203768, -0.2936990317469223, 0.3126422116208357, -0.19776652157274846, -0.1907155144820753, 0.17028912494834164, -0.210578718839613, -0.20653458528893426, -0.19123622129542145, 0.15626862271991665, -0.17802682615102994], [0.03521587376162282, -0.0348158258550645, 0.10207233084643032, 0.3026919875662812, -0.0991428720230171, -0.033773616400581824, -0.3649579402859483, 0.2931465343908979, -0.2839332065718567, 0.014887291251430687, -0.566549045338212, -0.26775673180188586, -0.1759627791614947, 0.09318886342999622, -0.40528648873588735, 0.04623941967679786, -0.040051681763560894, -0.037079643368150415, 0.4766337910949144, -0.06904956379860605, 0.0778684074407263, 0.13008881766902924, -0.4766022053153721, 0.12385175920987597, -0.04031758404951363, -0.10778332028936191, -0.071993001536412, -0.05884285812446749, -0.36742304412761806, -0.4169025188382224, 0.4419195179467849, 0.32622637246462366, 0.018174042542701784, -0.1727054755833249, -0.04979932728427777, 0.07484375571606137, 0.034864462453627905, 0.07226144569153116, -0.16446114615864302, -0.03468370736150533, 0.19467695934508508, -0.05523780749690921, 0.3033045279800747, -0.31034581309427345, 0.4153821415477871, -0.1537676975492201, -0.1839442353193514, 0.08805178785878293, 0.021740728946859383, -0.48448983901634124], [0.0841739940196965, -0.15152695417610254, -0.3061191279028552, 0.3155256738387105, -0.5475006586361887, 0.019196418003166592, -0.0651912285154804, 0.16036155982031203, -0.14697032065390772, -0.15795489853597147, 0.3156483503205009, -0.20864886162273105, -0.023015578593200147, -0.03969745565462998, -0.1645210152588039, -0.051554044635339996, 0.08205729253148812, 0.32735797170968495, 0.2813046451766427, -0.4406099957826726, -0.10775457089323835, 0.02946397370516646, 0.3446711963590362, 0.10870220620189534, -0.42456545778778637, 0.06507224748868808, 0.7657095966995011, 0.24542360562610144, -0.1932071184334346, -0.18249829229276132, 0.059545126686695135, 0.08148751276945826, 0.4208589882337525, 0.028682463071775428, -0.14583057319778805, -0.14292082793261732, 0.1309535392668322, -0.061932528836875646, -0.2773486012316763, -0.9298688829920211, 0.03465236545006994, 0.4155162445838345, 0.48647884124177887, 0.18307586164415704, 0.13478182846248649, 0.027527584947901973, 0.43966844299167246, -0.056256103492061615, -0.1524925712863761, 0.028454963212410665], [-0.05677383194389977, -0.47597916565699167, 0.06371335923534936, 0.18800935348319175, -0.16458875836041367, 0.3172462696254247, -0.06166113672438083, 0.3925197174797733, -0.042726355561624046, -0.356687063472806, 0.4520963459274599, 0.3322747570518697, 0.05607343276065072, 0.08227128387220281, -0.19841380340643947, -0.20054383158759825, -0.2893844964846012, -0.352831992216963, -0.0005969966237911325, 0.31166451231370956, -0.14453780300251404, -0.39596048341227486, -0.036666779353579794, -0.13467068638837143, -0.4358399496359719, 0.2501934741864285, 0.2807994657245063, -0.1842385849064799, 0.00967696697928051, 0.4515884621556912, 0.23612590929036248, 0.653971277175085, 0.04951812467528236, -0.18324065013542928, -0.6212839994624991, 0.004917315497210628, 0.0701350939444095, 0.019287342924277542, -0.01328833489773353, -0.659558351735686, 0.21389980292889194, 0.4659678339262704, 0.14314143810633734, 0.39038932372002116, -0.17858409785391302, 0.028195023063683468, -0.2374991320973647, 0.45593880064139053, 0.31535665998692786, -0.06120033379342822], [-0.17175626783323872, -0.5454978456002844, -0.120218486377975, -0.15799284506312586, 0.3366938298733601, 0.32363278150352714, -0.15729937050344234, 0.4381167175526703, 0.18058529241398397, -0.05186057293682745, 0.4446971798763814, 0.6773494598306082, 0.037058013314280935, 0.23569286012193078, -0.0297521321018523, 0.3928495430338671, -0.7400178245433948, -0.08054414336776618, -0.11517495257211514, 0.25233886235425335, -0.1421175004165146, -0.42329318860334103, 0.19568452973986575, -0.08855282280578125, -0.08266391833352545, 0.20601466799897455, -0.25459771724620633, -0.27084275047785766, 0.3910474843947845, 0.26740893598162624, 0.5022530648891265, 0.29618860453344215, 0.45666575991901465, -0.18699432059280036, -0.24105075204091359, -0.5411897353447606, 0.24806131562496128, 0.03419708489576288, 0.06901330589846963, -0.41188028899751655, 0.5536285204856985, 0.2595204540628202, -0.029455515194960695, 0.19765406750892206, -0.2782306079301988, -0.03385756447972384, -0.3168645632664792, 0.38086288727788337, -0.11419819900199384, -0.027997689686304734], [-0.31705745163074095, 0.0343020428079951, -0.09989781217686568, 0.1506538508646262, -0.26576174288079024, 0.10451095255538682, 0.13634714980191906, 0.33797699340478754, 0.10632085799714495, 0.2736193647734016, 0.46901417712740906, -0.14439005667186935, -0.19309852774249814, 0.11500015625846473, 0.10089422851691426, 0.12667798674487246, 0.07389742665751296, 0.4949756934568626, -0.10295824392769004, 0.18025279405574807, -0.03514531289077755, -0.41994865992642594, 0.06889326034134367, 0.13859567668728548, -0.1019616089875158, -0.051413489907463576, -0.39406981094739574, -0.11904063576404636, 0.13095512370154025, -0.3787801874447715, 0.010773639802263759, -0.005757222825550929, 0.14989501427921142, -0.024515058543506888, -0.12479753563823745, -0.599191745357044, 0.1723303144990673, 0.31791157171345524, -0.08112926520690686, -0.4807671757702901, 0.16527157317447272, -0.2574676508921924, 0.06241588810361632, 0.19893064572036426, 0.12281674937808684, 0.10744372134521696, -0.2958088701608608, 0.34967821273401184, -0.19576759741955915, -0.04991732692045302], [-0.1371829800140346, -0.06541549157802305, -0.27094367660031066, -0.34362828951967, 0.036741654090422994, -0.06096301611965284, 0.17794002872975434, 0.2077578190165664, 0.06882894148424072, 0.08764804973424636, 0.3281133881480329, -0.07547112191547362, -0.2302473549724679, 0.0025714489794539637, 0.10863730817636862, -0.08405357372982526, -0.05245604673449669, 0.07282879955637067, -0.08369759656040267, 0.49221730851355916, 0.17916622018357065, -0.051395553675868455, 0.16375297874189776, -0.29479210577175424, -0.13251661269133747, 0.37268788802093383, 